#ifndef NET_H
#define NET_H
float conv1_weight[][75]={
{0.11275634,0.124877594,0.12498543,0.1203533,0.11037555,0.09009719,0.10355704,0.10446499,0.099248506,0.088492125,0.0005864174,0.0018707879,0.0053269546,0.008473764,0.01856889,-0.11612384,-0.13695444,-0.12623912,-0.1103244,-0.07172487,-0.11683345,-0.14074501,-0.14015114,-0.1399,-0.114989445,0.08397625,0.09751952,0.09648497,0.092003666,0.07800422,0.08152202,0.09664325,0.09472176,0.08834301,0.07039769,0.024231896,0.031244365,0.03150357,0.031056426,0.028879022,-0.072862595,-0.08634386,-0.077265576,-0.065474495,-0.04147268,-0.0816939,-0.0968399,-0.09655848,-0.09762241,-0.08411279,0.10269126,0.11543411,0.114845455,0.113046244,0.10214844,0.09100535,0.10672883,0.106622435,0.103500724,0.08956252,0.00050587964,0.0068693794,0.010823128,0.016665263,0.02385462,-0.13619326,-0.1536409,-0.13850826,-0.11655534,-0.07752692,-0.1555945,-0.17602769,-0.17032625,-0.16407561,-0.13768704},
{-2.8746767e-09,-3.526122e-09,-3.9424672e-09,-3.6493368e-09,-2.5344782e-09,-1.5408044e-09,-2.7401663e-09,-3.4032555e-09,-3.4272147e-09,-2.5889877e-09,5.1675075e-10,-1.2685561e-11,-4.5400655e-10,-6.474329e-10,-4.5027418e-10,1.2181999e-09,9.792395e-10,9.920257e-10,5.5821536e-10,4.665238e-10,1.9014028e-09,1.8082632e-09,1.9989816e-09,1.6455504e-09,1.4400428e-09,-1.4965609e-09,-2.0341802e-09,-2.5112443e-09,-2.135322e-09,-1.1848458e-09,-4.4527335e-10,-1.4443854e-09,-1.961416e-09,-1.8927466e-09,-1.1937661e-09,1.1462995e-09,7.7753465e-10,5.0634735e-10,4.108606e-10,5.440024e-10,1.4635639e-09,1.2820491e-09,1.4319854e-09,1.1073925e-09,1.0526604e-09,1.835743e-09,1.8748163e-09,2.1540523e-09,1.9080066e-09,1.7585042e-09,-3.555591e-09,-4.1472243e-09,-4.3710724e-09,-3.7216479e-09,-2.3457845e-09,-1.9859567e-09,-3.1881453e-09,-3.8562913e-09,-3.6451018e-09,-2.5029385e-09,8.478104e-11,-4.3331128e-10,-8.7042135e-10,-9.3054464e-10,-5.2268967e-10,6.868859e-10,4.535804e-10,5.297277e-10,1.336656e-10,1.7572926e-10,1.569157e-09,1.4374507e-09,1.7051206e-09,1.3556646e-09,1.2130368e-09},
{0.08784032,0.09765705,0.097534366,0.09379283,0.08572712,0.06996249,0.080890566,0.081368,0.077412106,0.068683654,7.866608e-05,0.00081198954,0.0038743732,0.00650232,0.014430866,-0.091324836,-0.10697282,-0.0984123,-0.08586323,-0.05573059,-0.09124896,-0.109645665,-0.10899161,-0.10859391,-0.08898348,0.06549245,0.076515205,0.075369425,0.07170623,0.060437348,0.063300036,0.075708404,0.07373787,0.068804085,0.054467827,0.018501457,0.023742635,0.024184154,0.024042325,0.022332313,-0.057691716,-0.067520946,-0.0604485,-0.05103861,-0.032212153,-0.063690834,-0.07513733,-0.07488267,-0.07561019,-0.064984225,0.08027435,0.09067167,0.0898545,0.08823201,0.07929519,0.07084549,0.08366937,0.08303686,0.080625035,0.06928414,0.000118272495,0.0048911665,0.0081179,0.01281982,0.018256433,-0.10705721,-0.11985011,-0.10801919,-0.09073552,-0.06031135,-0.12134322,-0.13673931,-0.13228859,-0.12727141,-0.10674204},
{-4.0584557e-16,-4.4380654e-16,4.2967004e-17,-3.766909e-16,-4.137487e-16,-7.5326836e-16,-8.8800674e-16,-4.052031e-16,-6.6974297e-16,-6.3769294e-16,-7.994708e-16,-8.296561e-16,-6.3848396e-16,-9.879065e-16,-8.1808687e-16,-6.961495e-16,-6.235567e-16,-3.7359394e-16,-8.107494e-16,-7.8731194e-16,-2.1876561e-16,-1.3432794e-16,-1.0611192e-17,-5.261085e-16,-6.621753e-16,-6.6870064e-16,-6.379946e-16,-6.3888095e-17,-4.839919e-16,-4.8262254e-16,-9.529576e-16,-1.017413e-15,-3.6888327e-16,-6.131776e-16,-5.7866533e-16,-9.374239e-16,-8.882316e-16,-5.7210045e-16,-8.889949e-16,-6.9983096e-16,-8.440805e-16,-8.274689e-16,-5.181978e-16,-9.136428e-16,-8.0118427e-16,-3.0259495e-16,-2.6274017e-16,-1.4180311e-16,-5.7114013e-16,-6.270241e-16,-4.2331337e-16,-5.6335685e-16,9.9671796e-17,-3.573385e-16,-2.916335e-16,-8.5811897e-16,-9.779315e-16,-3.8106165e-16,-6.658561e-16,-5.610292e-16,-9.385687e-16,-1.0169798e-15,-7.0241933e-16,-1.1072749e-15,-7.925754e-16,-8.8649886e-16,-8.795375e-16,-5.1701986e-16,-1.037201e-15,-9.085499e-16,-2.1800775e-16,-1.5187726e-16,-6.520433e-19,-5.873769e-16,-6.5223956e-16},
{6.9421514e-30,7.300802e-30,5.1930553e-30,5.9872866e-30,5.3087883e-30,4.1203278e-30,3.0870863e-30,-5.6160606e-32,3.5588327e-33,-3.3461208e-31,7.412305e-30,7.731822e-30,5.995516e-30,5.993046e-30,6.8417766e-30,1.0109027e-29,1.1387241e-29,1.0819843e-29,8.604354e-30,9.6717945e-30,1.0682288e-29,1.20334134e-29,1.16086104e-29,1.0108666e-29,1.0943422e-29,9.339776e-30,1.1238427e-29,9.914892e-30,6.190717e-30,7.265264e-30,6.726342e-30,6.29656e-30,2.724354e-30,1.2578139e-30,2.723664e-30,9.392709e-30,9.368996e-30,7.150351e-30,5.6048037e-30,8.327588e-30,9.811927e-30,1.0122808e-29,8.904414e-30,5.159838e-30,8.704171e-30,1.0123017e-29,1.03902694e-29,8.514472e-30,6.448527e-30,8.794666e-30,6.0296387e-30,6.817527e-30,4.9407927e-30,5.4339515e-30,4.730175e-30,1.828842e-30,-7.977375e-32,-3.731873e-30,-3.7840423e-30,-3.29656e-30,6.565132e-30,5.5915866e-30,2.6018134e-30,2.0440335e-30,3.766651e-30,8.603033e-30,9.448418e-30,7.362209e-30,3.6662078e-30,5.6596897e-30,8.674623e-30,9.586143e-30,7.8619846e-30,5.5314025e-30,6.483184e-30},
{1.7899307e-16,-1.4310178e-16,8.389742e-17,-2.3189883e-16,-1.5674341e-16,-2.5068622e-17,-1.9192378e-16,1.2543213e-16,-9.629068e-17,-1.3765775e-17,-5.0848944e-16,-4.5570537e-16,-1.5650637e-16,-3.4595563e-16,-3.2972534e-16,-1.8169051e-16,-1.4093891e-16,1.6428179e-16,-1.6703015e-17,9.978641e-17,-4.8193786e-17,-6.929838e-17,1.218994e-16,-2.1116787e-16,-4.312052e-16,2.8539605e-16,-2.9613392e-16,-6.946265e-17,-6.511456e-16,-6.8103874e-16,2.2299212e-16,-1.6350622e-16,1.7069037e-16,-4.423613e-16,-5.0391017e-16,-2.6960715e-16,-3.8294672e-16,-1.2867532e-16,-6.6246246e-16,-8.1642933e-16,1.8256529e-16,3.413003e-17,3.2194664e-16,-3.8163076e-17,-6.8111084e-17,2.006761e-16,2.1992307e-17,2.7270858e-16,-1.9603811e-16,-5.540268e-16,-8.581514e-17,-6.236259e-16,-2.4885823e-16,-8.241244e-16,-6.6820624e-16,-9.8300384e-17,-3.9727386e-16,7.0419513e-17,-4.7609186e-16,-3.5793347e-16,-6.510331e-16,-6.6615393e-16,-2.7038123e-16,-8.015017e-16,-7.296641e-16,-1.7477567e-16,-3.0635493e-16,1.684977e-16,-1.4520032e-16,1.659985e-16,-2.3652045e-16,-4.4291107e-16,-7.107246e-17,-5.1998654e-16,-6.8182176e-16},
{-4.308e-42,-2.5271e-41,-4.1034e-41,5.144e-42,1.4758e-41,1.4387e-41,-6.99e-41,-2.7317e-41,-2.3678e-41,7.04e-42,-2.551e-41,5.345e-42,1.1429e-41,-4.8946e-41,-1.023e-41,-3.4342e-41,2.8273e-41,3.2237e-41,-2.1335e-41,2.7751e-41,-3.1341e-41,3.9448e-41,-1.5081e-41,-4.0272e-41,-1.58e-41,-1.7557e-41,1.8007e-41,2.071e-42,-2.64e-42,-9.019e-42,5.2689e-41,-6.8067e-41,-1.3852e-41,3.36e-43,1.6203e-41,-3.669e-42,-1.6181e-41,-1.1823e-41,-4.475e-41,-3.2709e-41,4.0552e-41,-2.0368e-41,1.8873e-41,-5.318e-42,5.216e-42,-3.2343e-41,1.4572e-41,4.209e-41,2.7922e-41,1.1163e-41,-3.71e-42,4.818e-42,-3.1842e-41,-2.4628e-41,1.0843e-41,2.5225e-41,7.864e-42,2.7805e-41,-4.994e-42,-1.0357e-41,2.8595e-41,-9.25e-42,-2.6344e-41,-3.5866e-41,2.3399e-41,-2.4548e-41,-1.0437e-41,1.103e-42,3.433e-42,-2.02e-42,-2.426e-42,3.1686e-41,2.3252e-41,2.0514e-41,2.38e-43},
{-2.0440236e-06,4.1371922e-07,2.9582606e-07,-8.892214e-09,3.1355316e-07,-1.689257e-06,9.569054e-07,8.2018926e-07,4.7471477e-07,6.3491746e-07,-1.3463729e-06,8.2280746e-07,6.070262e-07,5.132788e-07,5.854702e-07,-1.2090977e-06,9.059147e-07,5.072401e-07,2.996071e-07,3.1663114e-07,-2.0849945e-06,6.020153e-07,5.2027497e-07,1.4181481e-07,2.0391134e-07,-2.4183073e-06,-6.394957e-08,8.008501e-08,-1.0315885e-07,2.9568534e-07,-2.444488e-06,2.7423587e-07,4.4148157e-07,3.0627336e-07,5.470875e-07,-2.2097968e-06,1.2515446e-07,3.0648457e-07,3.2974216e-07,5.077535e-07,-1.6819174e-06,3.9099163e-07,3.0849293e-07,2.213322e-07,3.3895793e-07,-2.2709737e-06,3.6979145e-07,5.434753e-07,3.4077377e-07,5.027526e-07,-1.6825516e-06,3.2802433e-07,-1.0959903e-07,-4.7603498e-07,-1.6155973e-07,-1.2517139e-06,8.038298e-07,4.0051708e-07,1.08268665e-07,3.4354355e-07,-7.1348006e-07,5.945662e-07,2.4059852e-07,2.2523064e-07,4.7712564e-07,-2.2498328e-07,9.701821e-07,3.826162e-07,2.2947624e-07,4.4915586e-07,-8.3951204e-07,1.0086698e-06,7.84888e-07,4.7101577e-07,6.803865e-07},
{0.07895418,0.09018628,0.09116261,0.08977891,0.084648676,0.09577271,0.09468456,0.099962056,0.097007774,0.09768587,0.1073394,0.105113,0.10599606,0.09897617,0.101639345,0.10426213,0.10318639,0.10215222,0.09583076,0.093091056,0.08444159,0.08065704,0.08396291,0.07677403,0.07008486,0.068816185,0.08251431,0.08563361,0.08871615,0.085659616,0.08092074,0.08326278,0.09103163,0.093093604,0.09588592,0.087333,0.090793684,0.09540402,0.09333755,0.09941548,0.09152774,0.097148,0.09887213,0.09701316,0.096282564,0.08496406,0.085658856,0.09073775,0.08705387,0.08022092,0.06947236,0.07943778,0.07936494,0.07856965,0.07117285,0.08644575,0.08421304,0.08955207,0.08938653,0.0888039,0.10102824,0.0986044,0.1014712,0.09634095,0.100799784,0.10745844,0.10742928,0.10739809,0.103780635,0.101265036,0.097471386,0.093855485,0.09760706,0.09163043,0.08431461},
{0.08424775,0.09363651,0.09361218,0.08997253,0.08226541,0.06704382,0.077474035,0.07809124,0.07423541,0.06593562,-3.7669175e-05,0.00083644234,0.003808919,0.0062591718,0.013921406,-0.08754421,-0.10252434,-0.09430162,-0.082354724,-0.05327721,-0.08774577,-0.10531968,-0.104527,-0.10427058,-0.08524845,0.06278413,0.07328659,0.072386935,0.0687831,0.05801029,0.060621046,0.07242479,0.070776835,0.06596629,0.05228094,0.017569985,0.022742007,0.023302723,0.023070738,0.021487175,-0.055346165,-0.06477229,-0.057880323,-0.048962135,-0.030693222,-0.06135241,-0.07223907,-0.071751855,-0.07263319,-0.062235896,0.07696782,0.08687096,0.08627491,0.08459312,0.0760983,0.06786951,0.08007302,0.079686545,0.07724609,0.066492595,-3.6987825e-05,0.0046960884,0.007887565,0.012249777,0.017556395,-0.102666125,-0.11489903,-0.10351063,-0.087072864,-0.057646453,-0.116669536,-0.13132043,-0.12684298,-0.12222651,-0.10227788}
};
float conv1_bias[]={
0.10895535,
3.8555625e-09,
0.08553315,
-6.906946e-16,
3.685872e-30,
4.6126217e-16,
-1.7225e-41,
-1.7069568e-05,
0.07568023,
0.08193801
};
float conv2_weight[][250]={
{1.8724e-41,-6.6419e-41,-6.1441e-41,-3.8225e-41,4.3042e-41,-1.64e-43,-1.3431e-41,-1.2290822e-35,-2.3343354e-28,1.5659447e-34,-3.118e-41,6.8e-43,-1.3452e-41,-2.2016e-41,-2.4774e-41,7.172e-42,-3.944e-41,-3.0707e-41,-2.4366e-41,6.2864e-41,3.1973e-41,3.6997e-41,-1.9666e-41,-2.6906e-41,-4.6407e-41,-9.724e-42,1.1946e-41,4.5723e-41,-5.6081e-41,-3.2795e-41,1.7047e-41,-2.2026e-41,-5.977e-42,-3.5405e-41,-2.4287e-41,-1.095e-41,2.476e-42,-5.07e-43,-4.695e-41,2.492e-41,-2.3374e-41,-2.2819e-41,2.2117e-41,-2.5613e-41,1.82e-43,-6.387e-41,3.9703e-41,5.0417e-41,-2.444e-41,4.624e-41,-6.6473e-41,3.645e-41,4.6837e-41,-6.5086e-41,-1.7149e-41,2.9486e-41,2.153e-41,-1.8557e-41,-1.6101898e-36,-2.933e-41,-7.552e-42,3.1697e-41,5.8363e-41,2.2592e-41,2.316e-41,-4.586e-42,3.397e-42,-1.7302e-41,4.662e-42,-4.2642e-41,-6.6839e-41,-4.2497e-41,5.6244e-41,-1.4852e-41,3.6916e-41,-6.636e-41,-4.0966e-41,-8.384e-42,6.3902e-41,-1.4589e-41,-2.0347e-41,1.7694e-41,-4.174e-42,-4.3809e-41,-1.054e-41,6.9649e-41,9.106e-42,2.8421e-41,2.5235e-41,6.1787e-41,-1.6961e-41,5.3408e-41,-6.6665e-41,1.6362e-41,5.755e-42,-2.0016e-41,1.7711e-41,5.197e-41,3.9688e-41,2.6936e-41,1.1216e-41,1.052e-42,3.944e-41,1.955e-41,2.0176e-41,-5.589e-41,3.3949e-41,1.4806e-41,1.6385e-41,5.3999e-41,2.7306e-41,-3.1217e-41,-3.9077e-41,-1.0165e-41,5.763e-41,5.1425e-41,6.9743e-41,4.5949e-41,4.849e-41,1.4876e-41,-5.012e-42,-1.8916e-41,-1.8982e-41,1.3377e-41,-9.288e-42,3.7471e-41,1.0064e-41,-5.1765e-41,-5.1238e-41,4.7873e-41,-5.2728e-41,3.7071e-41,3.3816e-41,6.3417e-41,6.3417e-41,5.5749e-41,-7.777e-42,-4.8924e-41,3.8778e-41,-3.2263e-41,-1.806e-42,3.82e-41,9.45e-42,3.9646e-41,-5.4949e-41,-1.8025e-41,6.0553e-41,-4.9766e-41,5.8395e-41,3.5391e-41,1.573e-41,-3.9147e-41,7.896e-42,6.3776e-41,-8.322e-42,-1.1613e-41,2.3252e-41,-7.278e-42,-2.4513e-41,-1.9481e-41,-1.6692e-41,-4.7375e-41,-1.6474e-41,2.8358e-41,1.319e-42,-4.9379e-41,5.9475e-41,-1.329e-41,-6.5909e-41,5.4335e-41,1.5999e-41,-2.062e-41,3.513e-42,-1.3429e-41,-4.4445e-41,4.867288e-39,-3.9563e-41,4.590151e-39,-4.3356e-41,7.627004e-39,-3.291873e-31,4.3954215e-36,5.131155e-36,4.016476e-39,-6.716533e-30,-4.314e-41,-2.7154e-41,2.5382e-41,2.864e-41,-3.5849981e-37,2.8734e-41,-1.203e-41,-1.8314e-41,-5.494e-42,2.888412e-39,-8.114e-42,-6.4535e-41,-5.794065e-36,3.028842e-39,-2.1716733e-36,-5.6721046e-19,-7.0852323e-20,-5.043542e-19,-8.9995175e-21,-7.9644046e-19,-9.184307e-16,-2.9213263e-17,-1.5881218e-17,-1.6563288e-19,-1.1595603e-15,-3.6205802e-22,-2.714481e-22,3.043327e-25,4.0060017e-27,-2.3499336e-17,-4.7960193e-32,-3.6469668e-25,-1.430359e-26,-5.7202515e-29,-1.4370101e-18,-2.0389766e-32,-1.18594015e-20,-3.9396224e-17,-1.5323465e-18,-6.762046e-17,-1.3339e-41,2.773e-42,6.3012e-41,-6.083e-41,-2.604e-42,2.3298e-41,3.9414e-41,-1.4176e-41,3.1236495e-38,-2.6127e-41,-2.576e-42,2.1258e-41,5.2117e-41,4.11e-41,4.3182e-41,3.6878e-41,8.16e-42,-1.1315e-41,3.01e-42,-2.5715e-41,-4.2368e-41,-2.8973e-41,6.6483e-41,-1.0927e-41,2.8542e-41},
{7.076903e-14,8.568142e-14,5.966583e-14,2.1612246e-14,1.1662124e-14,3.343443e-14,4.354923e-14,2.7679732e-14,1.4988453e-14,1.04363565e-14,4.3478316e-15,6.045412e-15,1.5448156e-14,2.5621002e-14,2.6937017e-14,2.7440708e-15,1.3324209e-15,3.0050578e-15,6.449337e-15,8.618099e-15,3.308905e-14,3.354703e-14,2.7904037e-14,2.4405191e-14,2.437743e-14,8.6992886e-23,-1.5267298e-23,1.9356288e-24,3.079192e-24,7.20239e-24,7.1082593e-22,4.0641834e-22,7.8978646e-23,8.2380776e-24,7.978919e-24,1.1933962e-21,1.2704207e-21,5.152509e-22,4.2111642e-23,2.7118296e-23,1.4410394e-22,8.402467e-23,1.1710508e-22,1.495046e-22,1.3546478e-22,1.1319929e-22,9.8413004e-23,1.4772659e-22,2.2789558e-22,2.388417e-22,5.8812784e-14,7.5694185e-14,5.523894e-14,2.0511514e-14,1.0855102e-14,2.898284e-14,4.000619e-14,2.6295996e-14,1.4213741e-14,9.643177e-15,3.925879e-15,5.6242386e-15,1.4514835e-14,2.4046935e-14,2.4241507e-14,2.5473243e-15,1.3217467e-15,2.9571595e-15,6.296711e-15,8.34479e-15,2.9620376e-14,3.0595145e-14,2.5424453e-14,2.2338896e-14,2.2303731e-14,2.6366833e-28,2.4612564e-28,6.857902e-29,3.1753322e-29,4.19015e-29,4.3561526e-28,5.2071893e-28,1.7531116e-28,7.858774e-29,1.0171428e-28,4.6773517e-29,-5.3369783e-30,3.0921242e-29,9.8716e-29,8.3472825e-29,4.3369908e-29,4.2160662e-29,2.0684615e-28,3.585211e-28,2.2860943e-28,1.1061356e-27,1.3873122e-27,1.0639943e-27,8.940725e-28,5.814093e-28,4.4734e-41,-6.5406e-41,-3.8831e-41,-1.1135e-41,4.117e-41,7.521e-42,-1.992e-41,-1.9813e-41,-2.3842e-41,-4.8331e-41,1.0339e-41,-1.0028e-41,3.6462e-41,2.5442e-41,-3.5224e-41,-5.035e-42,-1.5063e-41,2.4345e-41,-3.6795e-41,-1.0466e-41,-3.3684e-41,1.5323e-41,-2.4534e-41,3.1208e-41,4.6738e-41,3.619099e-29,1.0529399e-29,6.2930273e-30,3.2754306e-30,4.363559e-30,9.429216e-29,2.535965e-30,-1.1724356e-29,-6.725945e-30,7.257354e-30,1.3922662e-28,5.5435317e-30,-4.707791e-30,1.0383027e-29,1.4580326e-29,6.5537434e-29,1.1851321e-29,1.866679e-29,3.2164643e-29,4.0992658e-29,1.2116071e-28,3.544106e-29,5.10037e-29,6.5756773e-29,1.1005356e-28,6.4465e-41,-4.2127e-41,-4.6387e-41,-1.985e-41,3.4887e-41,-2.73e-41,2.307e-42,2.2831e-41,6.4373e-41,-4.0809e-41,1.5172e-41,-6.1366e-41,-2.8846e-41,2.7496e-41,2.9025e-41,5.2833e-41,1.284e-41,-1.0444e-41,4.5467e-41,4.5025e-41,2.1185e-41,-6.3105e-41,2.8323e-41,6.4566e-41,4.148e-41,1.3863395e-19,6.668137e-21,-6.016358e-22,-1.0353483e-23,6.670374e-24,1.3493942e-19,-2.8765408e-22,-1.2331729e-21,-6.7287715e-25,2.1473832e-23,2.0248665e-19,1.9881641e-20,-1.0607477e-21,-3.591159e-24,2.3620799e-23,2.7032001e-19,2.7862803e-20,8.62748e-23,-1.1448689e-24,1.7534838e-23,2.7064662e-19,3.4257995e-20,2.4429765e-22,-1.9230697e-25,-1.7171446e-23,1.4845221e-14,2.0022002e-14,2.2024591e-14,2.3685098e-14,2.5401974e-14,8.655297e-15,1.2561378e-14,1.7192887e-14,2.0644842e-14,2.2341473e-14,1.2712189e-14,1.5574297e-14,1.6419717e-14,1.7327363e-14,1.827106e-14,2.1188072e-14,2.5909545e-14,2.2412919e-14,1.6810943e-14,1.4275102e-14,1.415129e-14,1.8482215e-14,1.6692897e-14,1.3295894e-14,1.1925961e-14,5.5779003e-14,7.4023266e-14,5.3631158e-14,1.8874168e-14,1.0362651e-14,2.7868865e-14,3.8028378e-14,2.5206772e-14,1.3191651e-14,9.14076e-15,3.8203295e-15,5.451354e-15,1.40160295e-14,2.2434938e-14,2.2592286e-14,2.5293581e-15,1.3159015e-15,2.9216678e-15,6.1413887e-15,8.058272e-15,2.880066e-14,2.972376e-14,2.47677e-14,2.1667862e-14,2.1538181e-14},
{1.6067434e-11,3.3397448e-11,1.4046461e-10,1.84708e-10,1.6803783e-10,7.896392e-13,1.2554626e-11,6.747397e-12,-1.6993663e-11,4.3209472e-12,-2.0960829e-11,-1.4531315e-11,-6.8683596e-12,-6.6581736e-12,-1.9531649e-11,2.7870605e-11,1.1241962e-11,1.3143423e-11,2.1081838e-11,2.4041578e-11,8.7859796e-11,1.7353784e-10,2.3660454e-10,2.058665e-10,1.893138e-10,1.6521092e-19,4.982261e-19,3.3171266e-19,1.2413828e-18,3.7725454e-18,4.23124e-19,1.4136748e-18,1.3691298e-18,-1.0630368e-18,-4.5015107e-19,8.656183e-19,1.6746289e-18,1.5678903e-18,9.02648e-19,5.4582107e-19,3.5967108e-18,3.2735983e-18,3.5879886e-18,4.6576505e-18,6.2052724e-18,1.0673055e-18,-7.2537784e-19,-7.20797e-19,2.665491e-18,6.5820333e-18,2.0910265e-11,4.7152657e-11,1.484588e-10,1.2613896e-10,1.1713368e-10,9.923765e-12,2.6545412e-11,2.6552826e-11,3.7729264e-12,2.3257226e-11,-1.4610323e-11,-9.542511e-12,-4.418526e-12,-3.712758e-12,-9.838345e-12,3.8666126e-11,2.144273e-11,2.122201e-11,2.8767856e-11,3.328381e-11,9.200081e-11,1.7068218e-10,1.5443324e-10,1.6438442e-10,1.5924476e-10,2.1843608e-24,1.5188324e-24,9.330951e-25,1.1835291e-24,2.8052315e-25,1.8118344e-24,1.2643653e-24,4.7949327e-25,1.0486769e-24,1.3035607e-24,1.2429645e-24,1.2662509e-24,5.063285e-25,-1.4157305e-25,8.65963e-25,7.313669e-25,8.0362306e-25,3.6601862e-25,6.0090917e-25,9.784019e-25,7.3766807e-25,8.11843e-25,8.925798e-25,1.2752856e-24,1.3473628e-24,-1.196171e-39,-5.445722e-39,-9.560196e-39,-4.967201e-39,6.415799e-39,-8.758139e-39,-6.318132e-39,2.69851e-39,-4.190967e-39,-3.986101e-39,-6.232205e-39,1.0832788e-38,9.998522e-39,5.042452e-39,1.876039e-39,-2.903444e-39,-2.296884e-39,2.593012e-39,1.721562e-39,1.521191e-39,3.094883e-39,1.553146e-39,1.771723e-39,2.663367e-39,1.042046e-39,1.7333007e-25,5.033909e-25,5.2139663e-25,5.2592725e-25,-1.6786408e-24,1.589505e-24,9.977029e-25,-1.0438298e-24,-8.557643e-25,1.3015016e-24,-6.2729154e-25,6.7164983e-25,6.5049904e-25,-1.4576608e-24,-3.2422795e-24,1.0177656e-24,8.0106986e-25,6.671944e-25,-6.0105127e-25,-2.2234695e-24,2.3716192e-24,1.9171418e-24,2.3973877e-24,2.6204234e-24,8.993555e-25,2.5068e-41,3.2741e-41,4.954e-42,-4.5661e-41,-1.2177e-41,1.3042e-41,-4.163e-42,5.7435e-41,4.3243e-41,-1.0641e-41,2.5386e-41,6.103e-42,1.981e-42,-6.4349e-41,4.6831e-41,-3.27e-43,-1.8926e-41,3.4946e-41,-1.9809e-41,-2.0438e-41,3.6385e-41,3.9451e-41,-5.4222e-41,-2.9185e-41,-6.5753e-41,1.5919978e-16,1.1352256e-16,3.5556742e-17,-3.414303e-18,7.075561e-18,1.6380548e-16,9.2036734e-17,3.610871e-17,-1.0764881e-18,6.994979e-18,1.4008441e-16,3.678809e-17,4.423597e-17,1.0416472e-17,3.3938446e-17,1.3494492e-16,1.3947436e-17,3.688956e-17,5.7616968e-18,6.591024e-17,7.283201e-17,3.9170632e-17,9.051491e-18,-2.0291546e-17,7.4186236e-17,-4.9098867e-12,1.2111264e-11,1.0300788e-12,5.1516725e-12,4.1905493e-11,6.6438226e-12,2.879987e-11,4.9393267e-11,5.3730208e-11,5.304847e-11,2.1723214e-11,3.9789998e-11,5.1164097e-11,4.92781e-11,2.6702918e-11,3.53319e-11,4.0983522e-11,3.25055e-11,2.0338956e-11,4.4504e-11,1.3231211e-11,1.4901781e-11,2.2965598e-11,2.6225733e-11,4.6327803e-12,2.016403e-11,4.9865872e-11,1.4351764e-10,1.2520741e-10,1.2711678e-10,9.567554e-12,2.8817598e-11,2.8461067e-11,6.4738492e-12,2.4188759e-11,-1.3935437e-11,-8.7579085e-12,-4.1103666e-12,-3.3523674e-12,-8.851539e-12,3.4072346e-11,2.0995667e-11,1.9834166e-11,2.552216e-11,2.7238493e-11,7.601152e-11,1.4858259e-10,1.7711944e-10,1.5433683e-10,1.3144506e-10},
{0.12478716,0.16491209,0.1762959,0.14136112,0.074324585,0.04014155,0.04414279,0.04986389,0.03716377,0.006109041,-0.023491,-0.049837865,-0.04567036,-0.04288036,-0.039177764,-0.04303439,-0.03890915,-0.0358067,-0.035059907,-0.044718493,0.0026209657,0.009583684,0.016483413,0.013858073,0.0016997261,3.4750022e-10,5.882295e-11,-7.0742197e-12,-1.3792058e-10,-2.7195768e-10,7.839252e-10,9.2932e-10,7.1538847e-10,1.5772582e-10,-1.1721815e-10,1.4864029e-09,2.4332765e-09,2.9877874e-09,1.9438229e-09,5.224147e-10,1.0299999e-09,7.7293283e-10,9.46595e-10,4.075628e-10,-4.0656611e-10,1.9412746e-11,-5.569109e-10,-7.183352e-10,-1.0357156e-09,-1.8726427e-09,0.0972817,0.1286137,0.13746823,0.11004439,0.057806265,0.031315934,0.034795024,0.039589766,0.029427268,0.004848277,-0.01833844,-0.038883444,-0.035605416,-0.033362243,-0.030699603,-0.033236954,-0.030253643,-0.028035128,-0.027261144,-0.034740165,0.001628307,0.007130687,0.012537124,0.010477462,0.0010621028,-6.519292e-16,-5.418905e-16,2.597402e-16,-4.6119885e-18,-2.2759484e-16,-8.1434775e-16,-8.810875e-16,-6.7849965e-16,-9.167806e-16,-2.4691116e-16,-6.526388e-16,-6.800103e-16,-8.516669e-16,-9.383255e-16,-9.732971e-17,2.620068e-16,-1.01831624e-17,-1.9022995e-16,-3.0791493e-16,2.8271736e-16,-4.8264414e-16,-2.848969e-16,1.3982052e-17,-4.0683382e-16,-2.4009414e-17,1.8570652e-30,6.1854915e-30,3.2565786e-30,9.773194e-30,-3.1814234e-30,-4.666141e-30,6.3527725e-30,1.0206869e-29,1.1976236e-29,8.9671505e-31,-2.2319185e-30,1.9119762e-30,2.0647786e-30,9.160799e-31,-2.2967333e-31,-5.4533564e-30,-4.42438e-30,-5.368058e-30,-5.720653e-30,-6.726696e-32,4.990778e-30,1.7735725e-29,2.3228504e-29,2.2872269e-29,7.120638e-30,-5.1371225e-19,1.0957915e-17,-1.3204725e-16,3.4964236e-16,8.044044e-16,-1.3648456e-16,-6.592347e-17,-6.362826e-17,5.255512e-16,8.5793384e-16,1.1995522e-16,2.4348259e-16,2.4811215e-16,5.782839e-16,9.443697e-16,4.3460284e-16,6.152313e-16,5.4767816e-16,4.773893e-16,8.494546e-16,3.065086e-16,4.6747124e-16,7.149302e-18,-5.2905843e-17,2.6519882e-16,-3.2914e-41,-3.9056e-41,2.554e-41,-6.676e-41,2.7276e-41,-1.509e-41,2.77e-42,5.2591e-41,-3.5782e-41,-1.2927e-41,2.2875e-41,-5.0301e-41,-4.3066e-41,3.2223e-41,-1.969e-42,-2.9105e-41,-4.0722e-41,2.562e-42,-4.868e-41,-2.976e-42,-1.2801e-41,5.339e-42,2.2083e-41,-6.7747e-41,9.725e-42,-1.4046043e-06,-1.406332e-06,-1.1647669e-05,-1.0569975e-05,-2.8991249e-06,-2.1961715e-07,-2.3623048e-07,-2.5904098e-06,-3.835624e-06,-8.683407e-07,-1.2397872e-07,-1.1823122e-07,-4.5268405e-07,-1.4982226e-07,-1.1858029e-07,3.1411417e-08,2.6560525e-07,1.3540279e-07,3.496432e-07,-3.4679317e-08,1.4138186e-06,1.0847131e-06,2.0897246e-06,5.755081e-07,-4.518912e-08,-0.029379169,-0.037066072,-0.031083096,-0.008181462,0.0005842011,-0.06974377,-0.08699079,-0.09584562,-0.05486627,-0.0063520446,-0.020555556,-0.017081788,-0.022719324,-0.0037159752,0.02515099,0.054144625,0.06607646,0.05915655,0.057093598,0.063186,0.09190003,0.098139174,0.08244402,0.07618952,0.07403194,0.09332096,0.12340663,0.13186133,0.10552164,0.05539833,0.02997442,0.033355325,0.037978344,0.02820271,0.004610178,-0.017636243,-0.037300605,-0.034139656,-0.031988226,-0.029456893,-0.03185139,-0.02900488,-0.026912102,-0.026152208,-0.033315096,0.0015576556,0.006879371,0.012038593,0.010060894,0.0010261033},
{1.8807204e-15,1.5572157e-15,1.6048701e-15,1.469685e-15,1.8696287e-15,2.4976153e-16,1.07803366e-16,1.6824298e-16,1.0183149e-15,1.3228607e-15,2.171922e-15,2.3677984e-15,3.56775e-15,5.7568476e-15,3.331403e-15,2.4165926e-15,2.615389e-15,2.3426814e-15,8.1588966e-16,7.27759e-16,2.5741787e-15,2.3084693e-15,1.89033e-15,1.7070198e-15,2.026852e-15,1.0318526e-23,1.0001029e-23,3.0357926e-24,8.343659e-24,4.8759003e-24,6.167263e-23,5.4784856e-23,2.3992362e-23,2.2767425e-23,-1.0778743e-23,2.5927384e-23,2.2754033e-23,8.596902e-24,3.0710907e-23,7.71419e-24,-1.1952951e-23,-8.996286e-24,1.6685404e-23,6.171948e-23,2.720882e-23,2.7517128e-23,4.1615688e-23,5.437548e-23,5.123646e-23,4.868704e-23,1.5925045e-15,1.3578559e-15,1.3835618e-15,1.2756799e-15,1.5954448e-15,1.1367791e-16,-4.3473807e-17,2.2642408e-16,1.0653341e-15,1.4180849e-15,1.8349383e-15,2.0174643e-15,3.1269024e-15,5.2522175e-15,3.062884e-15,2.0475802e-15,2.9353264e-15,2.8036496e-15,1.1076009e-15,4.713822e-16,2.4119598e-15,2.1862636e-15,1.8277391e-15,1.6752976e-15,1.9482546e-15,8.7342736e-30,-1.3899983e-29,-1.6954798e-29,-4.037794e-30,-1.0734216e-30,-1.2979099e-29,-3.3136985e-29,-2.5912157e-29,-1.2689549e-29,5.522362e-30,-1.4070126e-29,-3.354143e-29,-3.1369372e-29,-1.0608409e-29,1.6130434e-29,1.5420449e-29,1.9738344e-30,1.23788214e-29,3.357932e-29,4.6662123e-29,5.826432e-29,2.6893866e-29,1.1939469e-29,3.4301273e-29,5.058444e-29,-3.774e-41,2.5644e-41,1.5165e-41,5.3006e-41,-2.329e-41,-5.6339e-41,-1.735e-41,1.228e-41,-2.2073e-41,-2.8836e-41,-3.1615e-41,-4.1691e-41,1.6307e-41,-3.5171e-41,-1.8175e-41,-6.246e-41,-3.2702e-41,-4.9352e-41,-2.3243e-41,2.1144e-41,-5.5054e-41,-3.688e-41,2.2868e-41,-2.7025e-41,-9.604e-42,5.571575e-30,1.3097923e-29,9.890204e-30,1.070121e-29,2.7192792e-29,6.89597e-30,1.4356548e-29,3.8155681e-31,1.6521093e-29,3.5432155e-29,4.5516315e-30,6.922171e-30,8.0648046e-30,8.18516e-30,1.9302497e-29,7.045526e-30,8.326737e-30,1.1735914e-29,2.4751284e-29,4.704954e-29,1.7914194e-29,1.3477191e-29,2.3686761e-29,3.869154e-29,6.4425017e-29,-2.9968e-41,6.505e-42,-4.8625e-41,-2.1469e-41,6.1928e-41,-5.1145e-41,-2.3277e-41,5.2711e-41,1.575e-41,4.1816e-41,-3.899e-41,-7.07e-42,2.3395e-41,5.2773e-41,3.2888e-41,2.4021e-41,3.3781e-41,-1.4124e-41,4.3907e-41,-4.8308e-41,-5.1799e-41,-5.291e-41,-4.9568e-41,-1.042e-41,-4.3735e-41,4.4431966e-21,-2.5979827e-21,8.534186e-22,3.3747048e-22,3.0666812e-22,5.1370004e-21,-1.8665702e-21,5.675709e-23,-3.5693716e-23,4.0170848e-23,6.4381147e-21,-1.2953939e-21,1.8326817e-26,-7.420595e-24,1.151981e-22,6.032904e-21,-1.3662856e-21,2.5998026e-22,1.6606211e-22,1.5858186e-22,2.7939344e-21,-6.652582e-22,3.1052125e-22,1.3635414e-22,4.5865074e-23,3.7807705e-15,3.9726853e-15,4.4615157e-15,4.7806667e-15,4.0837195e-15,3.5093242e-15,3.695992e-15,4.0360027e-15,4.266552e-15,3.5000236e-15,3.324899e-15,3.4173476e-15,3.0930128e-15,2.8519934e-15,2.4422075e-15,3.17324e-15,2.9007577e-15,2.8280135e-15,2.6614114e-15,2.3140256e-15,1.7148081e-15,1.6120886e-15,2.3882687e-15,2.8796528e-15,2.6654255e-15,1.536814e-15,1.3198783e-15,1.3390634e-15,1.2339669e-15,1.5333481e-15,9.475567e-17,-5.458942e-17,1.9240269e-16,9.57793e-16,1.195897e-15,1.7873272e-15,1.9545048e-15,2.9819503e-15,4.918701e-15,2.8242999e-15,2.0162747e-15,2.9191601e-15,2.3600259e-15,9.481415e-16,4.546909e-16,2.3317491e-15,2.1250439e-15,1.7803044e-15,1.6306024e-15,1.8748327e-15},
{-0.00027333532,-0.00020481879,-3.2214943e-05,0.0001448224,8.491775e-05,-0.00033176955,5.963986e-06,6.4616244e-05,-5.8940826e-05,-0.000114681294,-1.1574353e-05,0.00036329453,0.00034476118,-0.00011045954,-9.61318e-05,-0.00073696015,-0.0010083544,-0.0009609112,-0.0008161697,-0.0005859565,-0.0011209543,-0.0013753908,-0.0013980768,-0.001235625,-0.001189091,1.7414824e-12,1.0076126e-11,1.00663245e-11,8.328404e-12,-1.1099688e-11,-6.941457e-13,-3.4385311e-12,-3.535791e-12,-2.4674546e-12,-1.4113003e-11,-7.0571765e-12,-1.8276866e-11,-1.6208769e-11,-1.2320995e-11,-2.112481e-11,7.614097e-12,-3.1286354e-12,-1.6881388e-12,-3.9030452e-13,-1.6297703e-11,8.621265e-12,5.0466445e-12,2.4927439e-12,1.2488764e-12,-1.623041e-11,-0.00018585149,-0.00015599748,-2.5982417e-05,0.00010625692,5.7297722e-05,-0.00019721565,1.4175522e-05,5.0229624e-05,-3.6735426e-05,-7.8845966e-05,0.0001276176,0.00035825084,0.0004910231,0.00012878922,6.4107626e-06,-0.00054202817,-0.000662816,-0.00062765484,-0.0005905077,-0.00044576504,-0.0008212876,-0.0010147396,-0.0010849852,-0.0009604812,-0.00091861346,-3.6471975e-17,-1.8400267e-17,-2.308968e-17,-1.775542e-17,-2.189269e-17,-2.5842992e-17,-2.0034751e-17,-1.8793845e-17,-1.7609286e-17,-2.0208984e-17,-1.1952308e-17,-2.6644745e-18,1.3439072e-17,4.375884e-18,-2.5922404e-17,-2.249352e-17,-1.6137639e-17,3.974669e-19,-5.488249e-18,-2.2296334e-17,1.2762573e-17,-1.1755174e-17,-1.0139472e-18,9.228655e-18,-2.1875064e-18,1.9731942e-31,-5.978592e-32,2.966429e-33,-2.5744713e-32,-1.2006967e-31,1.606548e-31,6.4744207e-32,7.655696e-32,1.03995735e-32,-8.882911e-32,7.478085e-32,2.77927e-32,-1.0165283e-32,-7.803811e-32,-2.6611177e-31,1.0646348e-31,3.5578737e-32,-6.2419526e-32,-1.5890476e-31,-4.2905375e-31,1.0248827e-31,3.6022707e-32,-2.9140476e-32,-1.6977102e-31,-3.6407463e-31,2.7805435e-17,6.2836e-20,3.5652713e-18,-1.7853525e-18,-7.191985e-18,3.7008246e-17,3.0136971e-18,1.0071007e-18,-1.6273942e-18,-2.578961e-18,2.641688e-17,-4.10609e-18,-3.1995354e-18,8.442912e-19,-1.5243097e-18,3.424498e-17,-4.9664197e-18,-1.729584e-18,2.5308918e-18,4.523898e-18,1.7336333e-17,-4.7891007e-19,9.94111e-18,7.826808e-18,-3.972598e-18,-2.3563e-41,6.2761e-41,8.043e-42,3.4874e-41,-1.9087e-41,4.8706e-41,1.988e-41,-7.6e-44,-3.1378e-41,-5.2015e-41,1.6276e-41,-7.37e-43,2.4814e-41,3.3438e-41,-5.9311e-41,1.2141e-41,-2.7838e-41,-2.9269e-41,-2.77e-42,-5.7938e-41,4.3558e-41,5.7008e-41,-1.9959e-41,-6.7397e-41,-4.9208e-41,-6.79983e-09,-2.2239679e-11,1.3617319e-11,4.2639156e-11,4.273858e-11,-6.076428e-09,-3.3975215e-11,-4.2277612e-11,-4.271106e-15,2.1550317e-11,-5.6730176e-09,-8.138691e-11,-5.21897e-11,2.0610161e-11,1.4081558e-11,-6.202777e-09,2.5703778e-10,-5.0062347e-11,1.9681112e-12,1.7345955e-11,-5.21719e-09,3.9091583e-10,-3.8510545e-11,-1.4074443e-12,2.4439974e-11,-0.0029850292,-0.0029444352,-0.0026639355,-0.0030141834,-0.0035566725,-0.0028126508,-0.0031100651,-0.0028389355,-0.003261287,-0.003712513,-0.0029342717,-0.0033463056,-0.002962086,-0.003418733,-0.0038289302,-0.0029218385,-0.0030242288,-0.002618809,-0.0031632823,-0.0036079162,-0.0026243816,-0.002473711,-0.0020670358,-0.0027027477,-0.002885215,-0.00017843804,-0.00014859045,-2.5236444e-05,0.00010066296,5.549389e-05,-0.00021245831,1.3031605e-05,4.784864e-05,-3.7579095e-05,-8.079447e-05,3.379857e-05,0.00028089512,0.0004403314,4.100868e-05,-5.4092707e-05,-0.000542994,-0.00071055023,-0.0006295735,-0.0005930087,-0.0004384648,-0.0008207148,-0.0010060819,-0.0010517902,-0.0009360121,-0.00089527376},
{0.004034656,0.011065335,0.011053578,0.005613104,0.0007148858,0.0043541505,0.021031324,0.04423903,0.05016678,0.028552419,-0.0055708066,0.003593632,0.031597428,0.04660115,0.03186773,-0.010276609,-0.017694436,-0.0185404,-0.010819984,-0.005298237,0.0074951537,0.0024486664,-0.004929548,-0.006953187,-0.0014848834,-2.4941554e-10,-2.9773542e-10,-3.7858222e-10,-1.6145113e-10,-2.5854313e-10,-1.0388179e-10,-4.7894865e-11,-1.1312321e-10,3.033628e-12,-7.200614e-11,-1.1207796e-10,-1.15413124e-10,1.2413408e-10,2.0618199e-10,1.2012095e-10,-2.1407565e-10,-7.712955e-11,5.7157107e-10,9.891682e-10,1.0030279e-09,-1.8530094e-10,-2.456245e-10,-6.269328e-11,2.4114893e-10,5.407039e-10,0.0034311924,0.008692007,0.008734641,0.00450232,0.00055646367,0.0035483819,0.016289512,0.034237165,0.038767662,0.021934124,-0.004284697,0.0027190705,0.024413712,0.036036674,0.024583636,-0.007921325,-0.013755855,-0.014536898,-0.008482822,-0.0041622315,0.0056756064,0.00196276,-0.0037338184,-0.00533952,-0.0010845258,-3.933715e-16,-3.1904843e-16,-1.1135016e-16,-1.7943252e-16,2.4733913e-16,-2.787659e-16,-1.9231757e-16,2.664005e-17,5.973554e-17,3.9590923e-16,-6.031544e-16,-5.0894155e-16,1.0050864e-16,4.01207e-16,7.185171e-16,-3.5614848e-16,1.7177712e-16,2.1625378e-16,1.5506485e-16,5.305753e-16,-7.3195563e-16,-4.2757021e-16,-2.8483902e-16,-2.1262983e-16,1.6810323e-16,1.9204587e-30,-2.890669e-31,-1.9859486e-30,-2.138767e-30,-5.230913e-30,-2.1389701e-30,-1.2177644e-30,-6.8552837e-31,-2.555673e-30,-6.4987986e-30,-1.68233e-30,-1.6567558e-30,-4.002847e-30,-4.6718983e-30,-5.462051e-30,-3.019845e-30,-3.6144856e-30,-3.5246346e-30,-3.6062643e-30,-4.1323923e-30,-8.531767e-31,-3.444035e-30,-4.584847e-30,-4.1265366e-30,-3.645119e-30,4.8608713e-17,-7.67907e-17,-5.392968e-17,-6.763181e-17,-3.6103742e-16,1.2831185e-16,1.36476546e-17,6.1517376e-17,5.3167156e-17,-1.6868137e-16,1.2642615e-16,4.3884443e-17,9.6235026e-17,1.3180029e-16,1.7435212e-16,-4.2527294e-17,-1.6479753e-16,-7.2996386e-17,2.1648661e-16,3.3493694e-16,-8.9473334e-17,-6.34457e-17,-1.9824758e-17,8.933693e-17,2.6750944e-16,3.55e-43,5.024e-42,5.497e-42,4.0687e-41,-5.5246e-41,-5.676e-41,7.355e-42,-1.1557e-41,-4.2003e-41,-1.3129e-41,-1.0259e-41,-3.405e-42,-5.7543e-41,-6.561e-42,-1.381e-41,3.023e-41,-1.1702e-41,4.5942e-41,1.2613e-41,-1.283e-41,-2.6e-43,-2.8809e-41,3.119e-42,-1.8615e-41,1.5814e-41,7.8335546e-08,-7.2977286e-09,-8.220882e-09,3.9693013e-09,2.6162743e-09,7.083951e-08,-4.3323656e-09,-1.3380609e-08,-3.6528525e-09,-6.283983e-10,6.038004e-08,-3.6709455e-09,-1.1675229e-08,-1.2726511e-09,1.8708546e-09,3.993985e-08,-1.2678938e-08,-1.9485904e-08,1.4847285e-10,1.3109092e-09,2.1554262e-08,-2.886908e-08,-2.1113328e-08,-3.954001e-09,-9.438847e-09,0.012952958,0.012036269,0.014002261,0.023327162,0.008707657,0.010707531,0.0012490341,-0.004382587,0.0056393477,-0.0011534651,0.008047057,-0.009407686,-0.03450225,-0.03217145,-0.013146039,0.016189901,0.0056802738,-0.02182155,-0.026513552,-0.010723796,0.014846494,0.015005749,0.0016903651,-0.004287372,-0.004924007,0.0033451975,0.008355932,0.008406497,0.0043441164,0.0005472397,0.003432299,0.015617665,0.032815486,0.037141226,0.02099827,-0.0041033924,0.002588208,0.02337349,0.03449473,0.023524856,-0.007581068,-0.013193398,-0.013963309,-0.008161381,-0.0040038093,0.005416171,0.0018906458,-0.003561411,-0.005110156,-0.0010281543},
{0.023669485,0.025452256,0.009991347,-0.0031562988,-0.007442077,0.11046266,0.14720508,0.14030175,0.087949954,0.039768867,0.09092155,0.12912932,0.13722505,0.10175792,0.03974988,-0.03863134,-0.040698484,-0.024806319,-0.006309095,-0.003288504,0.0002409234,-0.010053038,-0.012580859,-0.0055122874,0.003927122,-1.708224e-09,-1.3602525e-09,-9.645056e-10,-7.92735e-10,-1.1417445e-09,-5.4049504e-10,-3.010993e-10,-7.1086546e-11,-9.295242e-11,-3.755633e-10,3.0745584e-10,4.991238e-10,6.317354e-10,2.401301e-10,9.400539e-11,1.8097508e-09,3.4857361e-09,4.3339554e-09,2.7629092e-09,1.1565394e-09,1.0514987e-09,1.718377e-09,2.9525016e-09,2.2454834e-09,5.0737003e-10,0.01866494,0.019941308,0.007872666,-0.002612265,-0.005806942,0.086154036,0.11458004,0.10951796,0.0689252,0.030967938,0.07068577,0.100697294,0.10717077,0.0796163,0.030946337,-0.02973026,-0.031328823,-0.019058207,-0.004607061,-0.0023448376,-0.00017814859,-0.008263064,-0.010026883,-0.0044699255,0.002833764,-1.5931856e-17,6.967247e-16,8.8580975e-16,5.8276137e-16,7.314788e-16,-1.6450767e-16,-2.6735507e-16,2.6502406e-16,2.592964e-16,3.6676868e-16,-9.802977e-18,8.7224647e-16,1.1578256e-15,7.4880624e-16,6.1307377e-16,1.2041391e-16,7.689143e-16,4.5745814e-16,3.8256765e-16,7.983045e-16,-9.812716e-16,-3.984765e-16,-7.045149e-16,-4.9527843e-16,3.8630526e-18,-7.46017e-30,-1.0699126e-29,-1.3140951e-29,-1.12677404e-29,-9.536799e-30,-7.073141e-30,-1.0607767e-29,-1.4550634e-29,-1.7701027e-29,-2.1016992e-29,-3.58099e-30,-9.126255e-30,-1.5019175e-29,-1.4860536e-29,-1.8240087e-29,-4.034087e-30,-6.2210035e-30,-9.3177785e-30,-5.2474948e-30,-4.209362e-30,-4.086077e-30,-7.85891e-30,-7.7661786e-30,-2.0751367e-30,9.381472e-31,4.136014e-16,1.4009167e-16,3.1767963e-16,5.7257776e-16,6.64094e-16,1.140329e-16,-2.379562e-16,-1.8439453e-16,2.4187312e-16,2.954203e-16,3.4817236e-17,-1.301008e-16,-7.085139e-17,1.819211e-16,3.4688072e-16,2.7403191e-16,-1.262506e-16,3.1198457e-17,2.464811e-16,7.637111e-16,4.1464087e-16,1.3336338e-16,1.9712131e-16,5.8251107e-16,9.667612e-16,-1.5368e-41,-1.5344e-41,-5.44e-42,-3.2863e-41,-7.969e-42,-2.1387e-41,-1.9152e-41,-9.478e-42,4.053e-42,5.0155e-41,3.6326e-41,-3.8904e-41,1.4634e-41,-5.163e-41,6.345e-42,-3.0767e-41,1.7473e-41,2.7998e-41,-1.354e-41,-4.626e-42,4.586e-42,3.6432e-41,8.802e-42,-2.4818e-41,-6.634e-42,1.7791623e-05,2.128171e-05,1.2688463e-05,6.7513165e-06,1.4628353e-06,1.7080841e-06,-2.2701813e-06,-2.5361018e-05,-8.739554e-06,-8.451497e-06,-3.7787302e-06,-8.669896e-06,-4.505149e-05,-3.892675e-05,-1.7361002e-05,-1.3618583e-06,-2.8385607e-06,-2.0083016e-05,-2.3867604e-05,-1.1545115e-05,3.7685078e-07,-7.00752e-07,-2.1562762e-06,-2.3015366e-06,-2.5159927e-06,0.08154786,0.08215748,0.058919586,0.052888557,0.05344362,0.028106648,0.025884386,0.009913954,0.026319955,0.033325564,-0.049935613,-0.08492544,-0.09409705,-0.0379362,0.00587771,-0.025333917,-0.05669257,-0.08127954,-0.04038911,0.00058359205,0.03967404,0.02137231,-0.017033527,-0.009827313,0.0022277008,0.017963387,0.019172087,0.0075895907,-0.0025140955,-0.005561723,0.082705185,0.10994983,0.10511675,0.06619801,0.029696366,0.067784525,0.096566714,0.102789536,0.07638696,0.02964861,-0.028473124,-0.03003754,-0.018293587,-0.0044077886,-0.0022580344,-0.00022834344,-0.007992147,-0.009680558,-0.004346295,0.0026376948},
{-0.005081096,-0.004689669,-0.0065403027,-0.015840547,-0.02301106,-0.012784755,-0.01835148,-0.016927157,-0.025535185,-0.020875048,-0.0015848503,0.02465404,0.06579153,0.08995932,0.068450704,-0.0069478774,0.024349364,0.074486285,0.10637447,0.08072918,-0.02211664,-0.027291369,-0.026642205,-0.023341602,-0.014401541,-4.0847517e-10,1.3372656e-10,5.0577253e-10,4.3039153e-10,5.5650573e-10,-4.9829724e-11,-9.8097544e-11,6.8022976e-11,6.313505e-11,-2.4606342e-10,-1.6614546e-10,-2.2769034e-10,-1.2744691e-10,-2.578535e-10,-4.48151e-10,-1.0099514e-10,-1.8538716e-10,-2.3763352e-10,-2.4567995e-10,-1.7431057e-12,5.87399e-11,3.888523e-10,1.2845903e-09,2.0134052e-09,1.8414404e-09,-0.003949069,-0.0036875922,-0.0050988575,-0.012329559,-0.017902132,-0.010125364,-0.0144760795,-0.013176955,-0.01997954,-0.016377853,-0.001025846,0.019055026,0.050756637,0.069538586,0.052929003,-0.0052634343,0.019014327,0.057789173,0.082437605,0.06243979,-0.017340695,-0.021221355,-0.020593338,-0.018164765,-0.011508505,2.0948769e-16,-4.7188073e-18,3.113679e-16,1.6459892e-16,4.663352e-16,3.4156703e-17,-7.4932584e-17,3.085342e-17,1.0814665e-16,5.894626e-16,-3.9309962e-17,-4.0194948e-16,3.6845811e-16,4.6534047e-16,8.948434e-16,2.8122386e-16,8.425272e-16,1.1535263e-15,7.6736135e-16,1.0348694e-15,5.5913836e-17,4.32662e-16,3.420041e-16,2.7394088e-16,8.2204336e-16,-2.437237e-30,-3.524008e-30,-2.7415481e-30,-1.9504596e-30,-2.7133558e-30,-4.046797e-30,-2.6343934e-30,4.7642937e-31,-2.8325359e-30,-3.3073213e-30,-6.1079664e-30,-1.7075594e-30,-2.2581096e-30,-4.8625195e-30,-4.4919152e-30,-8.767322e-30,-9.7312425e-30,-5.7303695e-30,-3.761236e-30,-3.1847967e-30,-1.3249278e-30,-1.1020989e-30,1.8463894e-30,2.874505e-30,1.9288642e-30,2.6363477e-16,2.6379843e-16,1.685322e-16,1.71243e-16,1.3550297e-16,1.1905376e-16,1.9273507e-16,2.5014161e-16,2.276779e-16,6.768348e-17,2.0773155e-16,2.9859177e-16,1.9500194e-16,-1.2158088e-17,-1.0546354e-16,2.3473914e-16,2.1663007e-16,-4.5202383e-17,-1.4826755e-16,-2.023933e-16,2.1717573e-16,1.0565189e-16,2.2459866e-17,-4.7306942e-17,-1.1197651e-16,5.3874e-41,-6.005e-42,-3.6486e-41,5.1395e-41,-3.5502e-41,9.809e-42,-4.9934e-41,-2.7145e-41,-2.828e-42,-1.2515e-41,9.889e-42,3.0922e-41,-1.7024e-41,-5.3933e-41,6.204e-42,2.972e-41,3.4606e-41,6.251e-42,-2.2939e-41,-4.4421e-41,-4.977e-42,4.1689e-41,-1.1315e-41,4.5535e-41,-4.6899e-41,9.8607785e-08,-7.620908e-09,-1.0106602e-07,1.468502e-08,-1.39744385e-08,9.6593666e-08,3.4918777e-08,-7.8909686e-08,1.34038745e-08,-1.5159934e-08,6.6102e-08,4.020923e-08,-7.3620456e-08,2.6085136e-09,-1.79339e-08,5.227495e-08,3.3860296e-08,-6.196242e-08,-1.1203134e-08,-2.1951914e-08,3.1386868e-08,-4.0029832e-08,-4.7532385e-08,-9.52537e-09,-1.2998191e-08,0.023870254,0.0234706,0.016714266,0.017629933,0.009208476,0.026154438,0.025697889,0.02672945,0.034543883,0.019045647,0.022616167,0.015503366,0.013487875,0.015142148,0.007211343,0.011645013,-0.013177722,-0.054766834,-0.07521977,-0.05180479,0.032460313,0.009911465,-0.037095238,-0.062364303,-0.040201403,-0.0037787524,-0.0035258925,-0.004891506,-0.011836671,-0.017147245,-0.009733921,-0.0139045715,-0.012628848,-0.019173099,-0.015712302,-0.0009270242,0.018272663,0.0486344,0.06664432,0.050728153,-0.00505468,0.01822036,0.055345926,0.07892261,0.059746318,-0.016619753,-0.020333894,-0.019734163,-0.017431097,-0.011097504},
{0.0012443583,0.00057740003,-0.0022698517,-0.007532369,-0.008632578,0.001830605,0.009384066,0.017937556,0.018496888,0.008555264,-0.0011977613,0.009506072,0.029527862,0.040737838,0.028647175,-0.0068667857,-0.009917228,-0.008082648,-0.0013254291,0.0007689785,0.010238109,0.0069935117,-0.00023641539,-0.0014626653,0.0013878202,-2.445275e-10,-2.534491e-10,-2.789583e-10,-2.4229707e-10,-8.6447294e-11,-4.6840136e-11,-1.9615306e-11,-3.15724e-11,6.899201e-12,-4.3102202e-11,2.5126411e-11,-6.197831e-11,-6.185869e-11,-3.2369704e-11,-5.1160604e-11,-4.6685017e-12,6.9055e-11,2.7910582e-10,4.702641e-10,5.2498006e-10,-1.4415891e-10,-1.8887822e-10,4.4449618e-11,3.6516293e-10,4.2737816e-10,0.0012479735,0.0006621765,-0.0013567252,-0.005774822,-0.0067678327,0.0015793185,0.0072704963,0.013943629,0.014295817,0.0065235198,-0.0008787577,0.0072984304,0.022820825,0.031499427,0.022130974,-0.0051443274,-0.0075815693,-0.006276345,-0.0010292142,0.00061489345,0.007984091,0.0054980046,-0.00015166716,-0.0011238898,0.0010763688,-1.5638677e-16,-1.974816e-16,-4.0830032e-18,-8.639828e-17,-6.544428e-18,-1.2548727e-17,-1.246721e-16,-1.37910315e-17,-7.6193366e-17,1.1091605e-17,-6.7305185e-17,-1.1889174e-16,1.3171556e-16,2.469676e-16,3.4877487e-16,-1.9520965e-16,-1.091707e-17,1.5004102e-16,4.9896117e-17,2.2715478e-16,-1.4810399e-16,-6.7719636e-17,-1.3001606e-16,-1.9100586e-16,-1.4377106e-16,-3.7009875e-31,-6.7140974e-31,-1.5792778e-30,-1.4983261e-30,-2.672907e-30,-1.0119583e-30,-1.1823268e-30,-9.611083e-31,-1.8158676e-30,-3.5832194e-30,-1.1604997e-30,-1.6271264e-30,-3.0911817e-30,-3.0925558e-30,-4.9262828e-30,-1.6093751e-30,-1.5372101e-30,-1.5609969e-30,-1.2283739e-30,-2.371795e-30,-1.9094128e-30,-2.1938276e-30,-1.6759318e-30,-5.1845004e-31,-1.2059288e-30,-3.8307733e-17,-5.3643377e-17,-3.1921383e-17,-1.4048078e-16,-4.530669e-17,1.926366e-17,1.3558178e-17,8.1657947e-17,8.378334e-17,3.104214e-16,5.6435e-17,7.9576125e-17,1.2789251e-16,7.1655057e-17,3.759128e-16,6.3071082e-18,2.0814882e-17,1.9626078e-16,2.3550256e-16,2.2516087e-16,-1.2466148e-17,3.4071642e-17,1.2163221e-17,6.7565985e-17,5.2177964e-17,-1.603e-41,2.1388e-41,-4.274e-41,5.306e-41,4.0453e-41,4.8104e-41,4.8642e-41,-6.369e-41,1.8606e-41,-2.6473e-41,-3.38e-42,5.513e-41,-6.474e-42,-5.4679e-41,3.3913e-41,-4.9131e-41,-1.781e-42,3.1346e-41,5.3509e-41,-5.202e-42,-4.1648e-41,-2.9497e-41,6.1821e-41,-1.1729e-41,3.5541e-41,2.459596e-08,-3.3353875e-09,-1.730277e-08,2.4090854e-09,2.7264684e-09,2.6760576e-08,-1.8980995e-09,-1.847794e-08,-1.5454295e-10,2.9347966e-09,3.5640948e-08,2.3808417e-09,-1.6531914e-08,-3.7713957e-10,1.6205465e-09,3.1879228e-08,3.5523036e-09,-1.8903142e-08,1.0211403e-09,7.109891e-10,2.454498e-08,1.8305283e-09,-1.5503307e-08,-9.999951e-10,-5.6162257e-09,0.0116367955,0.013877027,0.011658183,0.014773388,0.009928774,0.009374826,0.0084739,0.0060435804,0.011174418,0.0064550666,0.0063407323,-0.004777676,-0.018047918,-0.016590754,-0.006926699,0.008302281,-0.0010857916,-0.01889652,-0.02383934,-0.011579221,0.0062844492,0.0024449232,-0.0075778128,-0.011485504,-0.007264427,0.0012455642,0.0006758204,-0.0012231382,-0.005521033,-0.0064897183,0.001543291,0.0069819386,0.013386099,0.0137087805,0.0062496606,-0.00083589536,0.006980624,0.021857345,0.030162921,0.021188648,-0.004902921,-0.0072556273,-0.0060249567,-0.0010066213,0.0005764629,0.0076650903,0.005287722,-0.00013269452,-0.0010715775,0.0010313072},
{0.024098624,0.025189182,0.0123728225,0.0031869807,-0.0022808583,0.105267726,0.13316867,0.11880691,0.06957858,0.031151304,0.081864916,0.1061075,0.103837855,0.07177009,0.025451982,-0.033176895,-0.03534088,-0.019903438,-0.0041158777,-0.0010146995,-0.008127637,-0.015266927,-0.011373375,-0.0072567593,-0.0033258495,-1.2676966e-09,-1.0335377e-09,-7.412338e-10,-6.027815e-10,-6.2565164e-10,-3.5661787e-10,-1.1504805e-10,8.084847e-11,3.0265224e-10,3.5981848e-10,4.5186913e-10,6.40621e-10,6.1838973e-10,2.3463e-10,2.8407834e-10,1.9675332e-09,3.0548586e-09,3.3118301e-09,2.3304436e-09,1.130854e-09,9.997376e-10,1.1961243e-09,1.869546e-09,1.6721814e-09,3.9403134e-10,0.018817216,0.01959812,0.009565096,0.0024358144,-0.0016883711,0.08203247,0.10387613,0.09275959,0.0541819,0.02395413,0.06363165,0.08267547,0.08103848,0.055988695,0.019633565,-0.025604714,-0.027483484,-0.015452305,-0.0029640845,-0.00071334344,-0.006441385,-0.0120436875,-0.008779395,-0.0054734903,-0.0022768488,3.2260467e-17,2.3079146e-16,7.6063876e-16,7.0051943e-16,7.6868076e-16,-1.0259273e-15,-5.576309e-16,-5.816402e-17,-1.369388e-16,6.050976e-16,-1.4383162e-16,9.729533e-16,1.0938804e-15,7.8486507e-16,8.6188546e-16,2.1869237e-16,7.6410927e-16,5.228514e-16,4.605092e-16,7.8271826e-16,-9.113482e-16,-7.3041705e-16,-5.1080714e-16,-2.1729382e-16,9.7029503e-17,-6.24605e-30,-9.24639e-30,-1.233381e-29,-1.2083447e-29,-9.8534014e-30,-4.7935952e-30,-8.478746e-30,-1.1926803e-29,-1.5173052e-29,-1.6027223e-29,-3.639014e-30,-5.349844e-30,-9.9748366e-30,-1.1629293e-29,-1.05239455e-29,-2.4348932e-30,-3.7250073e-30,-8.247441e-30,-6.636178e-30,-5.002127e-30,-4.9196534e-30,-7.1183364e-30,-1.2141056e-29,-7.400976e-30,-4.495499e-30,2.7675216e-16,8.174883e-17,1.4689492e-16,3.752091e-16,3.1069423e-16,1.4803646e-16,-2.7644162e-16,-1.2317184e-16,1.6549816e-18,2.7851138e-17,2.0178243e-16,-9.135214e-17,1.9070416e-16,2.36423e-16,1.647302e-16,1.931229e-16,-1.6021308e-16,3.026554e-16,4.0721022e-16,4.5077495e-16,2.2664725e-16,-9.902032e-17,2.5791277e-16,5.3586237e-16,6.5432406e-16,-2.741e-41,2.182e-41,2.6211e-41,-1.25e-43,4.6115e-41,-1.5336e-41,-2.1761e-41,-3.4311e-41,5.6654e-41,-3.734e-42,5.937e-42,-4.5506e-41,2.3587e-41,-9.924e-42,3.8262e-41,-6.346e-42,-1.1212e-41,4.2728e-41,-1.621e-41,3.2143e-41,8.831e-42,-7.348e-42,-3.5117e-41,8.05e-42,-2.4282e-41,2.0483235e-06,8.540764e-07,-3.008534e-06,-4.4262656e-06,-6.152343e-06,-1.6889899e-06,-4.553297e-06,-1.102976e-05,-9.730969e-06,-7.4456225e-06,-2.8869922e-06,-4.865522e-06,-1.42516365e-05,-1.5797861e-05,-6.4657597e-06,-1.4098863e-06,-2.1942985e-06,-6.7086685e-06,-6.9674948e-06,-3.596074e-06,3.2640162e-07,-6.9210955e-07,-1.286793e-06,-1.3270383e-06,-1.3510625e-06,0.062212292,0.06572216,0.04545926,0.03569654,0.03267491,0.013382527,0.015266563,0.005356801,0.016266787,0.019613586,-0.055398602,-0.07528838,-0.07333706,-0.026597612,0.005477965,-0.028000824,-0.04121815,-0.054095577,-0.021851476,0.007477288,0.03315514,0.028944382,-0.0013536406,0.0007044049,0.0069141514,0.018082278,0.018817957,0.009179937,0.0023408104,-0.0016013631,0.07874345,0.09970966,0.089028694,0.051985092,0.022920515,0.061012443,0.07927323,0.077713884,0.053692374,0.018778576,-0.024536563,-0.026378118,-0.0148358885,-0.002815835,-0.0006944082,-0.006201249,-0.011577376,-0.008430877,-0.0052459654,-0.0021770075},
{-0.005340646,-0.0054717455,-0.011875338,-0.019967416,-0.022398606,0.041477513,0.062427294,0.07196895,0.054712497,0.019059142,0.04180516,0.09062502,0.13334861,0.13309045,0.074570686,-0.030686134,-0.034320462,-0.017656451,0.00421881,0.003582403,0.024808615,0.016611347,0.0070050918,0.006139517,0.012786425,-9.1510505e-10,-8.4159535e-10,-5.4478777e-10,-3.9861406e-10,-4.4651444e-10,-3.1772732e-10,-2.626664e-10,-7.870928e-11,-2.2035461e-10,-2.6392377e-10,-5.676226e-11,-3.2145836e-10,-1.6746549e-10,-2.5299407e-10,-2.072739e-10,6.6171696e-10,1.3706944e-09,1.9094692e-09,1.906275e-09,1.2076296e-09,7.0308905e-11,2.6109256e-10,1.5457761e-09,2.088914e-09,9.2740315e-10,-0.0038762367,-0.0043406337,-0.009598025,-0.015922515,-0.017603861,0.03221845,0.048453514,0.056000255,0.04261513,0.014645118,0.032494593,0.070452146,0.10379956,0.10356206,0.05779619,-0.023237102,-0.026306357,-0.013618844,0.003391892,0.0029021702,0.019039564,0.012698105,0.005283288,0.0045099347,0.009839293,-3.4091956e-16,-8.87757e-17,2.485784e-16,-8.388522e-17,5.235555e-16,-2.0663922e-16,-2.990287e-16,9.317612e-16,-5.7905703e-16,3.4283357e-16,-3.9188398e-16,-2.3280822e-16,5.5876604e-16,5.0465503e-16,8.6211453e-16,-7.130408e-17,4.597111e-16,5.477418e-16,4.9375483e-17,7.4359275e-16,-8.981719e-16,-4.48283e-16,-8.144691e-16,-7.774225e-16,-3.4822086e-16,-4.32765e-30,-5.468589e-30,-8.166545e-30,-7.3490304e-30,-8.746397e-30,-4.4571214e-30,-3.4203824e-30,-1.1195327e-29,-7.66651e-30,-1.23343385e-29,-3.2838227e-30,-5.9359324e-30,-1.106746e-29,-1.2237011e-29,-1.4684515e-29,-2.3362516e-30,-2.77734e-30,-3.8656152e-30,-3.9070897e-30,-5.2855357e-30,-3.5790606e-30,-5.125879e-30,-2.6710271e-30,2.0122564e-31,6.5322767e-31,1.008002e-16,2.0789488e-16,5.587637e-17,-2.493385e-16,-3.673901e-16,6.114139e-17,3.1232997e-17,-7.857472e-17,-2.848759e-16,-5.876315e-16,8.213403e-17,2.4418763e-16,1.4634686e-16,5.0238477e-17,-3.9533571e-16,9.9263745e-17,9.695954e-17,-1.3587314e-16,-7.386786e-17,-1.1181711e-16,2.021504e-17,-1.3198527e-16,1.5098895e-17,1.8304226e-16,-1.56212e-17,-4.1932e-41,-1.3876e-41,-3.932e-42,2.1227e-41,-4.208e-42,-5.9066e-41,-3.93e-41,-8.1275e-41,7.6399e-41,-1.4443e-41,-3.9948e-41,7.392e-42,4.141e-42,-4.8077e-41,-2.8057e-41,-4.5736e-41,-2.9744e-41,2.9193e-41,3.682e-41,8.59e-42,2.9824e-41,3.859e-42,-4.3896e-41,3.8e-41,4.5112e-41,7.525753e-08,-1.351779e-07,-1.0817466e-07,5.731737e-09,2.9932292e-09,4.942838e-08,-1.3885447e-07,-1.148142e-07,-3.051221e-09,9.535773e-09,1.0210579e-08,-1.4217875e-07,-1.06233244e-07,-2.4113895e-09,2.1949754e-08,4.787503e-09,-1.1802326e-07,-8.818722e-08,6.105302e-09,3.2576946e-08,1.9247208e-08,-1.1290034e-07,-6.230978e-08,-1.2479324e-09,2.0303992e-09,0.056707643,0.056863524,0.04653492,0.0586277,0.04829965,0.03871389,0.03659194,0.02647841,0.04588102,0.036443587,-0.004303929,-0.040108148,-0.069432266,-0.039837398,-0.008702101,0.00073142943,-0.039971743,-0.083880626,-0.07058833,-0.029158948,0.023983575,-0.0010141076,-0.03834134,-0.03930817,-0.024743166,-0.003654431,-0.004155085,-0.009246139,-0.015337305,-0.016894648,0.030913567,0.0465015,0.053752184,0.04091246,0.0140482895,0.03114725,0.067549005,0.09953445,0.09927648,0.05535874,-0.02218162,-0.025188174,-0.013067645,0.0032085734,0.0027509453,0.018228902,0.012134231,0.0050341287,0.004272905,0.009395735},
{0.14634821,0.18744117,0.18296556,0.12978205,0.06340633,0.06326319,0.08416073,0.081325,0.048901875,0.011045697,-0.029779332,-0.05391553,-0.0434584,-0.03567702,-0.026423981,-0.03193165,-0.031850234,-0.018955152,-0.02649787,-0.030204019,0.0018701019,0.015331035,0.02180735,0.019103784,0.004273542,5.14646e-10,2.2053098e-10,2.1310059e-10,-3.6877135e-10,-3.5532688e-10,8.533728e-10,8.857396e-10,5.7282523e-10,-1.7362198e-10,-6.230964e-10,2.5341673e-09,3.7241479e-09,3.7221457e-09,2.04062e-09,2.712844e-10,1.3079033e-09,1.4597302e-09,1.4346379e-09,3.0644406e-10,-4.979916e-10,4.0043335e-10,2.0345056e-11,-2.4328195e-10,-1.0918713e-09,-1.8976958e-09,0.11409846,0.14627178,0.14289276,0.10117036,0.049487185,0.049429473,0.06596947,0.06415329,0.038694274,0.008701971,-0.023276499,-0.042136103,-0.033954024,-0.0277995,-0.020783754,-0.024482915,-0.02441683,-0.01442735,-0.020453077,-0.02344387,0.0011515411,0.011801576,0.01680424,0.014654087,0.0032390768,-8.44056e-16,-5.776666e-16,-4.296402e-16,-6.782213e-16,-1.017915e-15,-8.261703e-16,-1.209736e-15,-1.0830449e-15,-1.0763837e-15,-7.8935456e-16,1.0257471e-16,-6.314304e-17,-2.743114e-16,-1.2355095e-16,2.2356561e-17,7.336294e-16,4.482996e-16,3.9991528e-16,3.854553e-16,3.2642837e-16,7.4808573e-17,-3.751891e-16,1.9201866e-16,4.546055e-16,1.1187394e-16,-8.269377e-30,-2.7446326e-30,-2.7147645e-30,6.067065e-31,-6.668231e-30,-7.136933e-30,1.5589463e-31,4.8540157e-30,-2.1442476e-30,-2.276828e-30,1.397439e-30,3.4962546e-30,2.0749275e-30,-9.8247066e-32,2.4929508e-30,-5.9075257e-30,-5.2853107e-30,-5.6067142e-30,-5.772541e-30,-1.1446155e-30,-2.0168756e-30,4.8897375e-30,7.897145e-30,-4.5291628e-30,-2.4590495e-30,1.0131637e-16,-7.013244e-18,-1.6051746e-16,3.9933247e-16,9.402792e-16,-8.9185985e-17,3.6698463e-17,1.8591905e-16,6.550613e-16,9.043776e-16,6.1417174e-17,1.6260837e-16,2.2746805e-16,7.559573e-16,1.0001488e-15,2.5379463e-16,5.658278e-16,4.442402e-16,8.2709665e-16,1.0774614e-15,1.4005651e-16,3.432043e-16,7.279524e-17,3.0999214e-16,4.1150057e-16,1.4125e-41,2.5362e-41,-7.6393e-41,8.56e-42,-1.2337e-41,2.6955e-41,-2.4395e-41,-1.3675e-41,-5.2933e-41,-3.5667e-41,-2.676e-42,5.2455e-41,2.8445e-41,-1.0067e-41,1.604e-42,1.6831e-41,-3.7803e-41,-1.906e-41,-9.754e-42,3.77e-42,-1.0259e-41,-3.588e-41,-4.4446e-41,-4.3258e-41,-4.6575e-41,-3.832251e-07,-6.279394e-07,-1.4371586e-06,-1.0447346e-06,-6.7282166e-08,-2.024867e-07,-1.6031892e-07,-2.8965664e-07,-1.2080578e-07,-2.648693e-08,-1.4822331e-07,-5.5172475e-08,-1.775479e-07,5.0460013e-08,-5.4009854e-09,-1.7265641e-09,1.18288064e-07,-1.6453093e-07,6.737817e-08,-4.0053273e-08,2.1087722e-07,2.4165922e-07,-6.0825007e-09,7.420498e-08,-6.006356e-08,-0.03112934,-0.037341427,-0.0205068,0.0028112107,0.012126887,-0.08610859,-0.11321718,-0.101267226,-0.04346538,0.009347264,-0.032484848,-0.042499006,-0.03842675,-0.008618192,0.024612095,0.051440533,0.05595202,0.049441025,0.045683037,0.05639549,0.09274571,0.09310851,0.07400633,0.063916,0.062291447,0.109470665,0.1403539,0.13709894,0.09703988,0.0474418,0.047360625,0.06324775,0.06153374,0.03711227,0.00832659,-0.022374831,-0.040428728,-0.03256084,-0.026652317,-0.01995591,-0.023433676,-0.023339286,-0.0137770595,-0.019587038,-0.022472108,0.0010919896,0.01139191,0.016140668,0.014060473,0.0031314052},
{-6.5923837e-15,-6.312271e-15,-7.472518e-15,-9.8880695e-15,-1.0438675e-14,-1.854626e-15,-2.5112365e-15,-2.9045607e-15,-3.4623067e-15,-2.8463403e-15,1.4921533e-15,4.2421072e-16,-1.625347e-15,-2.316084e-15,-3.1280867e-15,-2.660755e-15,-4.7468684e-15,-5.2631883e-15,-5.738815e-15,-6.7636775e-15,-6.2610295e-15,-2.1374656e-14,-1.6338857e-14,-6.829928e-15,-7.640553e-15,1.8816529e-23,1.0640127e-22,7.28804e-23,1.12596704e-23,6.6547523e-23,-1.6781109e-22,-1.04380726e-23,-1.6247095e-24,-7.122016e-23,-1.5815081e-22,-3.4363155e-22,-1.4538636e-22,-9.204432e-24,5.400513e-23,7.2564557e-23,-2.7452206e-22,-2.3918197e-22,-2.3578737e-22,-2.9510193e-22,-3.6362938e-22,-2.9744812e-22,-3.2721519e-22,-2.9699045e-22,-3.1111579e-22,-3.8237305e-22,-6.1142993e-15,-6.2288838e-15,-6.650852e-15,-1.2567685e-14,-7.662212e-15,-1.8082716e-15,-2.338843e-15,-2.4666908e-15,-2.916849e-15,-2.3798638e-15,7.670111e-16,3.946426e-16,-1.1335255e-15,-2.1265988e-15,-2.8173908e-15,-2.9212909e-15,-4.9007175e-15,-5.3674216e-15,-5.6817848e-15,-6.561902e-15,-7.101586e-15,-2.0346023e-14,-1.6571774e-14,-9.6247846e-15,-9.2401825e-15,-6.383056e-29,-7.4232394e-29,-1.0539876e-28,-1.1803862e-28,-8.6843305e-29,-8.2661003e-29,-6.13297e-29,-1.1369429e-28,-1.228993e-28,-1.6957493e-28,-8.4180965e-29,-6.3269387e-29,-5.163546e-29,-5.1676125e-29,-1.1885636e-28,-2.5170903e-28,-2.7208693e-28,-1.8905483e-28,-1.4922351e-28,-1.6499976e-28,-1.4715618e-28,-1.3274243e-28,-8.7670486e-29,-9.930231e-29,-1.341154e-28,-8.44e-42,4.9989e-41,2.2317e-41,2.286e-42,-5.147e-41,5.2009e-41,-4.4196e-41,3.9958e-41,-1.0534e-41,-5.9842e-41,-6.6611e-41,2.51e-43,4.2939e-41,-3.9996e-41,-1.267e-41,4.033e-41,4.4811e-41,2.1906e-41,-4.1083e-41,-6.5228e-41,-1.0615e-41,5.5542e-41,3.5324e-41,3.36e-42,-3.1944e-41,-1.237256e-28,-1.0297283e-28,-1.1964517e-28,-7.303915e-29,-7.077807e-29,-1.8093417e-29,3.439351e-29,-3.6716795e-29,2.0043176e-28,3.089921e-29,8.071712e-29,-1.8010653e-29,7.939044e-30,-1.5018614e-28,-2.491927e-28,5.4773514e-29,7.8463403e-29,3.6050818e-29,-1.0923521e-28,-1.1624586e-28,-2.4188221e-28,-1.3290161e-28,-7.563201e-29,-8.554209e-29,-3.0934954e-28,5.4858e-41,4.7117e-41,-6.116e-41,-3.6389e-41,1.3699e-41,-3.6034e-41,6.8458e-41,6.741e-41,1.4062e-41,-1.2889e-41,4.4257e-41,2.724e-41,-3.37e-42,-2.1602e-41,2.5806e-41,2.157e-42,-5.451e-41,4.1749e-41,-2.7069e-41,5.7362e-41,1.7467e-41,-5.6381e-41,5.0716e-41,6.233e-41,-1.0152e-41,-4.2901493e-20,-9.1963275e-21,-2.2985457e-21,3.0170322e-22,4.6023647e-23,-4.0147967e-20,-1.3911459e-20,-3.101786e-21,-2.0413783e-22,-2.453826e-22,-4.85672e-20,-2.561183e-20,-7.065252e-21,-2.367982e-22,3.9168209e-22,-4.8623538e-20,-2.1793592e-20,-6.9713926e-21,1.1831227e-21,6.0326993e-22,-4.0916916e-20,-1.5071161e-20,-6.292521e-21,2.7149932e-22,5.151731e-22,-3.6158697e-15,-7.488899e-15,-8.210665e-15,-6.0106525e-15,-5.3630653e-15,-2.0752206e-15,-5.3370623e-15,-6.558189e-15,-4.9425008e-15,-4.1701994e-15,-4.1506715e-15,-6.02281e-15,-5.3842983e-15,-3.7880177e-15,-4.22349e-15,-4.4995085e-15,-5.1946693e-15,-3.1346288e-15,-8.558514e-16,-1.8285536e-15,-3.4134816e-15,-2.957306e-15,-2.1454358e-15,-9.751844e-16,-9.619785e-17,-5.9472525e-15,-6.0549752e-15,-6.3750427e-15,-8.226854e-15,-8.1402e-15,-1.7981466e-15,-2.3182936e-15,-2.4079152e-15,-2.8267556e-15,-2.3113526e-15,6.418337e-16,3.646589e-16,-1.0810541e-15,-2.076077e-15,-2.7409444e-15,-2.8119698e-15,-4.531638e-15,-4.8706224e-15,-5.1070183e-15,-6.0022203e-15,-6.4258185e-15,-1.7699912e-14,-1.4084724e-14,-7.138366e-15,-7.045401e-15},
{-3.5181686e-12,-1.5536049e-12,-6.1259804e-12,-5.1106784e-12,-1.186022e-07,-2.3837692e-09,-2.3100007e-10,5.829594e-08,2.9784883e-07,1.4942257e-08,-4.592805e-09,-2.2958547e-08,2.1961232e-06,8.882047e-06,3.4759212e-06,-4.3693067e-06,-1.92235e-05,-1.6637745e-06,-6.3429684e-06,-4.3208012e-05,-2.0905514e-05,-1.851626e-05,-5.4637917e-06,-9.135334e-06,-4.2847536e-05,-6.098e-41,-6.1964e-41,-6.5798e-41,-5.9823e-41,-2.7066e-41,-6.7506e-41,5.734e-42,1.0953e-41,-4.8654e-41,-1.8953e-41,3.8117e-41,4.678e-42,-4.0142e-41,2.0662e-41,5.86478e-40,3.0753e-41,-4.3534e-41,6.3769e-41,2.7234e-41,-2.3661e-41,5.3905e-41,2.7656e-41,5.8951e-41,4.0524e-41,-1.028462e-39,-6.6239517e-16,-1.1928032e-16,-3.601959e-15,-1.3529091e-14,-2.2369303e-08,-8.083741e-12,-4.6363217e-12,1.7318873e-09,1.3959725e-08,-1.5947046e-08,-9.9555524e-11,-4.6409762e-10,1.6931972e-07,1.0283895e-06,4.482827e-07,-4.812838e-07,-2.3673792e-06,-1.0352161e-07,-1.1562944e-06,-1.7299879e-05,-5.390965e-06,-3.5335863e-06,-5.802914e-07,-1.9980832e-06,-1.8633567e-05,5.2878e-41,4.148e-42,3.7381e-41,5.044e-41,-1.2621e-41,1.103e-42,4.2936e-41,5.195e-41,8.193e-42,4.933e-41,2.904e-41,6.0309e-41,3.5358e-41,-5.1069e-41,-6.1692e-41,-4.7574e-41,-4.9237e-41,5.6397e-41,3.363e-41,5.8591e-41,2.5918e-41,4.2901e-41,1.621e-42,-2.719e-42,-4.3465e-41,-5.426e-42,2.0581e-41,-2.6478e-41,-3.0723e-41,6.1289e-41,4.4423e-41,-6.8844e-41,-5.445e-41,4.5821e-41,-5.3488e-41,2.9136e-41,-5.569e-41,-3.95e-43,-2.979e-42,2.218e-41,-4.6903e-41,7.068e-42,3.3609e-41,-2.6555e-41,7.145e-42,-5.186e-42,-3.8286e-41,-1.8016e-41,-2.8266e-41,5.5688e-41,-4.66062e-40,3.58554e-40,1.882217e-39,-2.52381e-39,-3.1433e-41,-6.91312e-40,-8.67e-42,-5.15277e-40,-5.16278e-40,-4.584e-42,1.590991e-39,-1.5005e-41,3.4866e-41,-1.246e-41,9.21e-42,1.371245e-39,1.107e-41,2.772e-41,-6.4226e-41,6.198e-42,1.377126e-39,-7.11584e-40,3.13287e-40,-2.20867e-40,-3.9758e-41,-3.9347e-41,4.0221e-41,2.1318e-41,-2.453e-41,3.4777e-41,2.8921e-41,-2.7799e-41,2.0493e-41,-2.769e-42,-5.587e-41,4.2703e-41,-4.4295e-41,-3.0635e-41,4.3133e-41,-1.167e-41,-4.677e-41,8.663e-42,-6.1311e-41,3.5708e-41,1.9485e-41,4.5137e-41,-4.3436e-41,-5.448e-41,6.3902e-41,2.9258e-41,1.00893355e-14,9.558898e-14,4.786547e-13,2.6239694e-12,-1.3709189e-11,1.7698352e-14,3.67705e-14,3.5537254e-14,9.7455186e-14,-9.665024e-12,2.374669e-15,2.331763e-15,-3.1284757e-15,-5.72485e-14,-6.401292e-13,5.2619693e-16,1.1584893e-15,-1.9073592e-13,-2.8437222e-12,-1.5401164e-13,-1.7585613e-15,3.38196e-15,-1.0313482e-14,-1.1570244e-13,-1.0811267e-14,-0.00026371947,-0.00040742275,-0.00033723118,-7.243249e-05,-0.0002650193,-0.00015219797,-0.00047547443,-0.0005402989,-0.00017001026,-0.00021024642,-0.00035778206,-0.00089865056,-0.0009390075,-0.0003038799,-0.000105038336,-0.00027441687,-0.00041605957,-0.0005697046,-0.00024442186,-3.2169253e-05,-0.00016366631,-0.0001448482,-0.00022067045,-0.00016803366,-6.093721e-06,-1.6071579e-16,-2.1629895e-17,-9.13161e-16,-5.060968e-15,-1.5550711e-08,-2.7995572e-12,-2.0848401e-12,8.93303e-10,8.197228e-09,-1.3181483e-08,-4.4985505e-11,-2.35399e-10,1.0590766e-07,6.9331554e-07,2.9852916e-07,-3.138817e-07,-1.6603238e-06,-6.191955e-08,-8.3781134e-07,-1.4852761e-05,-4.181217e-06,-2.620407e-06,-3.853392e-07,-1.4945903e-06,-1.568785e-05},
{-2.090814e-12,-2.9478117e-12,-5.1836244e-12,-5.053973e-12,-2.2476142e-12,-1.3778948e-12,-7.6270576e-13,-6.903651e-13,-8.956966e-13,-4.0839657e-13,-4.6233986e-13,-1.7788039e-13,-6.4889137e-13,-1.0451027e-12,-1.1447235e-12,2.0229508e-12,2.369597e-12,2.8247527e-13,-5.466164e-13,-1.03884e-12,-1.8244187e-12,-8.032461e-13,-6.046481e-13,-3.6096213e-13,-4.413536e-13,-1.6481338e-20,-5.6477895e-20,-4.3347557e-20,5.728381e-22,1.428226e-20,-1.6548915e-20,-5.3447442e-20,-1.8210236e-20,-8.8000514e-21,-1.3027923e-20,-9.736138e-21,-3.3076665e-20,-2.305921e-21,9.408917e-22,-3.3735951e-21,-4.8262153e-20,-8.55705e-20,-5.251952e-20,-2.6109297e-20,-1.8014377e-20,2.9847772e-20,-4.960935e-21,-1.8673297e-20,-2.4989494e-21,-6.105219e-21,-1.6799225e-12,-2.3938538e-12,-4.7651006e-12,-5.1212897e-12,-2.6174978e-12,-1.5558704e-12,-7.0326785e-13,-4.339725e-13,-4.9985775e-13,-7.4912604e-14,-1.0701446e-12,-9.214786e-14,-3.337473e-13,-6.911535e-13,-7.906683e-13,1.2566213e-12,2.0745662e-12,8.4477586e-13,1.23022e-13,-3.3774426e-13,-2.1319019e-12,-1.2694718e-12,-1.304139e-12,-1.1975364e-12,-8.774175e-13,-2.6249772e-26,-5.744883e-26,-6.830686e-26,-2.8398327e-26,1.6386351e-28,5.459255e-27,1.1123074e-26,-1.7511664e-27,-3.310838e-26,6.264299e-27,-7.7837016e-26,4.0275152e-26,1.347678e-26,-4.2585762e-26,-5.2553028e-27,-5.501447e-26,-8.132359e-27,-5.4874674e-27,-2.4386304e-26,6.3733852e-27,-9.2567435e-26,-9.0655994e-26,-8.521709e-26,-5.9790184e-26,-1.6309585e-26,-9.1366e-41,-1.38231e-40,2.215e-40,1.2953e-40,5.1844e-41,-9.9393e-41,-4.38936e-40,-3.1123e-40,1.88989e-40,5.579e-42,7.9875e-41,-3.76445e-40,-4.41408e-40,2.30417e-40,-1.8639e-41,1.23725e-40,-1.55656e-40,-1.4514e-40,3.52385e-40,-1.04355e-40,1.71777e-40,-4.3231e-41,1.68946e-40,2.62023e-40,-2.709e-42,5.707205e-26,1.14870905e-26,1.6727885e-26,1.4661912e-26,1.00038325e-26,5.102388e-26,1.0266642e-26,-2.3622954e-26,-2.721035e-26,-4.3612622e-27,6.8397926e-26,2.2115486e-26,-3.0386907e-27,-2.9954663e-26,-7.5462665e-27,4.3562597e-26,1.5133048e-26,7.624001e-27,-5.073991e-27,-3.17981e-26,-1.5789184e-26,2.0774852e-27,5.229191e-27,-3.924473e-27,-1.1276658e-26,-4.9762e-41,-3.31e-41,7.651e-42,1.505e-42,3.3914e-41,-2.7777e-41,-1.212e-42,1.9746e-41,2.6179e-41,-5.115e-42,-4.1932e-41,2.8734e-41,-1.07e-42,-2.3833e-41,-4.3798e-41,-4.0164e-41,4.2325e-41,-2.8002e-41,-5.9451e-41,-3.8063e-41,-1.407e-41,-4.8384e-41,-5.1984e-41,-7.274e-42,-5.6747e-41,-5.3357228e-18,-9.096553e-19,1.3858147e-19,-4.8423565e-21,8.1609203e-22,-4.4823346e-18,-6.824917e-19,-3.469067e-19,8.099364e-20,8.398286e-20,-3.504891e-18,6.1084683e-19,-2.5277494e-19,1.9815877e-19,2.2512553e-19,-2.6543432e-18,1.5124084e-18,-1.2082059e-19,-1.7656725e-19,1.8741052e-19,2.0693226e-18,1.4513465e-18,2.6259828e-19,1.27607e-19,8.3729755e-20,-3.641377e-12,-3.763495e-12,-3.5932917e-12,-3.6179924e-12,-2.9129962e-12,-3.1562734e-12,-3.1638284e-12,-2.804058e-12,-2.488552e-12,-1.8979729e-12,-2.422879e-12,-2.1470553e-12,-1.3457707e-12,-7.728717e-13,1.4907123e-12,-2.320142e-12,-1.4531268e-12,-2.0227337e-13,1.2598507e-12,4.418979e-12,-1.483409e-12,-1.0284015e-12,-6.019615e-14,7.537064e-13,3.2998396e-12,-5.4441114e-13,-2.1690768e-12,-4.2582903e-12,-4.3196475e-12,-1.6722844e-12,-6.585738e-13,-6.702211e-13,-4.1281253e-13,-4.679672e-13,-1.7803486e-13,-4.5371042e-13,-8.654588e-14,-2.9786262e-13,-6.563034e-13,-8.088436e-13,1.5681258e-12,1.902749e-12,8.2714337e-13,7.03562e-14,-5.6461053e-13,-1.3129552e-12,-5.78116e-13,-4.3205923e-13,-2.4214734e-13,-7.5691027e-13},
{0.021814337,0.024566071,0.02063882,0.011614283,0.004229544,0.004414808,0.004616598,0.0045074197,0.0018415798,-0.0017038325,-0.004993392,-0.0071996306,-0.0057619493,-0.0052183038,-0.004805477,-0.0032283624,-0.0031417443,-0.002789494,-0.0038080893,-0.003946701,0.0018967098,0.0034855646,0.0033895518,0.0018842072,7.2116163e-06,-1.72379e-11,-1.4096538e-11,1.3196015e-11,6.4587655e-11,9.28436e-11,3.8994707e-11,8.8184335e-11,1.3133117e-10,1.04599246e-10,5.8598605e-11,2.108615e-10,4.3511228e-10,5.3831706e-10,2.8949537e-10,1.1979183e-10,3.8181895e-11,2.8676098e-11,4.948237e-11,-1.3054092e-11,-2.0638153e-11,-1.22917e-10,-1.1566022e-10,-9.997159e-11,-7.638376e-11,-9.4035196e-11,0.01667425,0.018737152,0.015773276,0.0088863745,0.0032444047,0.0034638287,0.0036104487,0.0035098887,0.0014870589,-0.0012355238,-0.0037127142,-0.00544784,-0.004412378,-0.004014867,-0.0036926398,-0.0023191392,-0.0023380856,-0.0021173283,-0.0029320712,-0.00307918,0.0013786568,0.0025842402,0.0024992344,0.0013587,-3.71064e-05,-1.3669076e-16,3.695617e-17,4.824384e-17,-1.1894748e-17,-8.7498934e-17,-2.1275453e-16,-1.9024785e-16,-1.698042e-16,-2.2067645e-16,-1.1536659e-16,-2.2978273e-16,-1.1668183e-16,-1.3083435e-16,-1.5504716e-16,-3.883123e-17,-2.7312067e-16,-1.8477697e-16,-1.435739e-16,-1.336687e-16,-2.342774e-18,-1.8842235e-16,-6.6275067e-18,-2.1394292e-17,-1.5377761e-16,-2.05832e-16,-2.6396832e-30,-2.6580274e-30,-4.580409e-30,-4.6694604e-30,4.3227436e-31,-1.7387713e-30,4.5225565e-31,1.535805e-31,1.0048323e-30,1.6950894e-31,1.33883465e-30,7.950878e-31,-1.4965293e-31,-3.7409203e-31,-6.2495467e-31,2.5531198e-30,1.7293988e-30,4.342937e-31,1.5000566e-31,-2.7831373e-31,-2.259349e-31,7.574015e-31,-4.4940458e-30,-1.164632e-30,1.6898427e-30,-1.5131434e-16,-8.055224e-17,-5.828749e-17,-3.5967984e-17,2.6765124e-17,-6.006325e-17,-4.4395187e-17,-6.577284e-17,-9.5579185e-17,-4.7593388e-17,-7.1815463e-17,3.36501e-17,5.818756e-17,1.8024944e-17,-2.7219975e-18,-3.473331e-17,1.7984458e-17,6.001084e-17,1.15754315e-17,-7.6781644e-17,-1.0630284e-16,-1.6035485e-16,-8.8577716e-17,3.2209966e-17,-1.3344673e-17,-5.4607e-41,6.7557e-41,-8.112e-41,2.4e-44,3.2859e-41,4.7867e-41,-3.7925e-41,-3.9905e-41,-1.2533e-41,-1.9467e-41,-4.493e-42,-1.0187e-41,-4.2216e-41,-6.71e-42,-1.466e-42,2.458e-42,-3.4351e-41,-9.668e-42,-9.82e-43,1.8466e-41,-3.2527e-41,-2.1644e-41,5.7282e-41,4.7308e-41,-4.1868e-41,6.7222103e-09,-3.777211e-08,-1.9882163e-08,2.60675e-09,2.1315116e-09,5.5771467e-09,-4.775667e-08,-1.6986174e-08,7.226628e-10,4.060776e-10,1.6824707e-08,-4.1711157e-08,-1.3355943e-08,2.7526543e-09,8.443679e-10,1.704045e-08,-3.263982e-08,-1.1404309e-08,2.6901932e-09,2.992884e-10,1.5892173e-08,-1.9591225e-08,-9.601415e-09,7.799338e-10,1.0606838e-10,-0.008680689,-0.00790036,-0.0056680865,-0.0011842123,0.0005380226,-0.015102723,-0.015264896,-0.012190532,-0.0038756132,0.0018915326,-0.004314753,-0.0027081328,-0.0031838547,0.00086530414,0.004751494,0.008226776,0.010483208,0.007874657,0.0077225706,0.007333761,0.0125555135,0.012744871,0.009532761,0.00884866,0.007200826,0.015946379,0.017912226,0.015079048,0.008497634,0.0031018872,0.00331922,0.0034546277,0.0033563722,0.0014280312,-0.0011737676,-0.0035299913,-0.0051967893,-0.004218517,-0.0038419885,-0.0035332472,-0.00219452,-0.0022215534,-0.0020182757,-0.0028054817,-0.002953194,0.0013112574,0.0024644535,0.002380908,0.001294168,-3.6753532e-05},
{-0.05719195,-0.08157784,-0.09036837,-0.0769706,-0.05164078,-0.07471645,-0.09642888,-0.10654249,-0.09774342,-0.077329725,-0.05002015,-0.06726625,-0.060409185,-0.04072276,-0.020773936,0.018872805,0.016919049,0.018579878,0.033900265,0.03297468,0.08560798,0.08721997,0.05542095,0.028696043,0.022787208,1.1701438e-09,8.215302e-10,9.616717e-11,-3.5204922e-10,4.684792e-10,-7.313865e-12,-2.5100783e-10,-5.5162874e-10,-1.0120401e-09,9.9543596e-11,-1.0706218e-09,-1.2012804e-09,-1.5102388e-09,-1.8995767e-09,-6.971208e-10,-1.6553747e-09,-2.2139721e-09,-2.5222335e-09,-2.9466922e-09,-2.2812128e-09,-2.305591e-09,-2.8175537e-09,-2.9774816e-09,-2.517184e-09,-1.2506873e-09,-0.04439748,-0.06325239,-0.07029068,-0.059823483,-0.039734654,-0.05842827,-0.07514693,-0.08308296,-0.076158434,-0.060135726,-0.0390108,-0.052750267,-0.047597457,-0.03227681,-0.01643908,0.013844806,0.011965336,0.013402198,0.025745787,0.025526308,0.06672364,0.068623476,0.043935344,0.023068873,0.018319983,3.654302e-16,2.8620537e-16,2.4628034e-16,5.5421154e-17,1.6826582e-16,-2.312852e-16,-2.97635e-16,-4.8092376e-16,-1.1873063e-15,-4.0430487e-16,-4.880985e-16,-9.435653e-16,-8.1101626e-16,-8.7564244e-16,-1.7463366e-16,1.1577254e-16,3.8279685e-16,1.0954245e-15,-1.5890576e-16,-1.6274568e-16,-9.688649e-17,6.637042e-16,3.939943e-16,1.6592028e-16,-1.1951603e-16,1.8734186e-30,3.3983655e-31,-1.0815142e-30,5.030988e-31,3.7314234e-30,6.720463e-30,4.297668e-30,3.2784316e-30,1.6216563e-29,1.8383191e-29,8.576136e-30,2.0790072e-29,1.05067965e-29,1.3831099e-29,1.736602e-29,5.373349e-30,1.3032741e-29,1.4923104e-29,1.3944584e-29,7.880257e-30,7.536123e-30,1.1113818e-29,1.1841901e-29,1.3043698e-29,6.398344e-30,1.0956522e-16,-1.231294e-16,-1.3127105e-16,-4.4521174e-16,-7.847958e-16,2.8333403e-16,-1.0604036e-16,-2.6920113e-16,-6.644536e-16,-1.0720136e-15,3.4908375e-17,-2.7033994e-16,-4.2541825e-16,-6.508998e-16,-1.0170483e-15,2.0844681e-16,-1.3902892e-16,-2.1926926e-16,-2.5208375e-16,-7.210816e-16,3.1871213e-16,1.938662e-16,2.1759575e-16,-1.3425947e-16,-8.65003e-16,-4.8454e-41,3.3085e-41,-1.7233e-41,-1.3097e-41,1.1788e-41,-5.3558e-41,-5.9802e-41,-4.7067e-41,9.491e-42,1.884e-41,-2.2921e-41,-4.6589e-41,3.6308e-41,-1.0854e-41,-1.3024e-41,1.4384e-41,-6.223e-41,-6.349e-42,-5.798e-41,-1.232e-42,-5.2162e-41,-2.0261e-41,3.2818e-41,3.4812e-41,1.7085e-41,-1.134763e-05,2.2389004e-06,1.0414883e-05,1.5226967e-05,-3.347945e-08,3.1644308e-06,2.117106e-05,4.5238092e-05,5.034832e-05,5.9490385e-06,5.460379e-06,3.398649e-05,8.2050596e-05,8.283935e-05,1.3124423e-05,1.8758668e-06,1.4215555e-05,4.0076582e-05,2.238988e-05,1.1313244e-06,-6.854407e-07,-1.1391984e-06,-1.3542161e-06,-1.8815962e-06,-2.0453824e-07,0.017349308,0.062396564,0.08188158,0.09181033,0.03229666,0.08042563,0.12986518,0.14847052,0.14674304,0.07090192,0.12694025,0.17203277,0.19109626,0.18072549,0.10672675,0.10934213,0.14641292,0.14203928,0.11558181,0.055050217,0.015485952,0.052129496,0.05965048,0.035160657,0.001623166,-0.042580515,-0.060641844,-0.06742419,-0.05736913,-0.037994362,-0.056092523,-0.0720871,-0.07970738,-0.073065326,-0.05761437,-0.037428766,-0.050630968,-0.045684725,-0.030989153,-0.0157291,0.013192297,0.011341669,0.012720029,0.024599798,0.024468733,0.064004675,0.06594382,0.042292,0.022273319,0.01770188},
{0.04293071,0.068319336,0.09086295,0.084887125,0.04670292,0.017222853,0.031688258,0.044803753,0.041754182,0.022665452,-0.0028956279,-0.017451968,-0.018949518,-0.019191882,-0.009918499,-0.011119452,-0.012893866,-0.008871836,-0.012323516,-0.0155435335,-0.0039824382,0.0015685137,0.008367148,0.0038455997,-0.0024765006,2.3384453e-10,2.68007e-10,2.56016e-10,2.0547739e-10,-7.955046e-11,1.1731728e-10,2.442658e-10,3.2342704e-10,2.2259965e-10,-1.06875606e-10,4.544587e-10,1.1549591e-09,1.695389e-09,1.4021216e-09,5.2315896e-10,3.36105e-10,5.6910293e-10,6.584121e-10,4.5636928e-10,1.6415563e-10,2.7784391e-10,1.2450076e-10,5.3872608e-11,-1.5996117e-10,-5.7345634e-10,0.033325247,0.052880913,0.07040146,0.065691404,0.036070388,0.0134764295,0.02466491,0.03483598,0.032330208,0.017497996,-0.0024078588,-0.01372523,-0.014859231,-0.01505756,-0.007937047,-0.008404416,-0.009816148,-0.006739864,-0.009428619,-0.011926779,-0.0030754346,0.0011968232,0.0065622525,0.0029533836,-0.0019423336,-6.807543e-16,-6.161888e-16,-3.051806e-16,-2.261442e-16,3.4750405e-16,-4.9244876e-16,-3.4052763e-16,-3.9129304e-16,-4.486833e-16,4.3669496e-16,-8.766313e-17,5.5168546e-17,-1.6039475e-16,-2.4514436e-16,3.413123e-16,3.3708656e-16,4.4114016e-16,3.1871388e-16,3.5957507e-16,5.887967e-16,-7.057272e-17,3.0796959e-16,2.26063e-16,1.8983901e-16,5.2186753e-16,-4.8594605e-30,-3.697847e-30,-1.0565321e-30,-6.0266696e-30,-4.2449204e-30,-3.3616573e-30,-3.6830476e-30,-1.9743603e-32,-3.210803e-30,-1.9180773e-30,-2.5833819e-30,-1.6616446e-30,-9.303458e-31,-1.1842996e-30,1.425922e-30,-4.133222e-30,-4.5476536e-30,-4.233593e-30,-3.9704836e-30,-1.6757434e-30,-1.7507706e-30,-3.944018e-30,-3.9386313e-30,-5.331258e-30,-2.8691372e-30,1.08619515e-16,9.9123184e-17,7.187956e-17,-1.2236031e-16,-8.1145105e-16,2.6480968e-16,9.827717e-17,-1.317694e-16,1.313836e-16,-7.5363e-16,9.3947515e-17,-9.717169e-18,-2.7886686e-16,-2.3776376e-16,-4.213848e-16,-2.3537958e-16,-3.2894352e-16,-4.72288e-16,-3.6396114e-16,-4.669648e-16,-1.8987689e-16,-3.7997747e-16,-5.1644546e-16,-5.549833e-16,-1.001412e-15,-4.0034e-41,-2.5812e-41,-6.77e-43,-3.23e-41,4.4221e-41,6.1405e-41,2.7733e-41,-3.509e-42,-1.819e-42,1.8733e-41,8.102e-42,-1.5301e-41,6.1418e-41,-4.849e-41,5.01e-42,-6.3452e-41,-1.6597e-41,2.2623e-41,1.637e-42,-3.2675e-41,-4.7815e-41,2.5506e-41,-7.913e-42,-7.482e-42,3.9533e-41,1.443928e-08,-3.8096e-08,-4.975672e-07,-2.793327e-07,-1.0295914e-07,4.9590465e-09,-5.0655878e-08,-1.4127926e-07,-4.853269e-08,-2.2295984e-08,2.9649072e-09,-3.0447413e-08,-8.042114e-08,8.946062e-09,-9.952064e-10,1.718179e-08,2.435875e-08,-7.711787e-08,1.45719286e-08,-1.933222e-08,3.713997e-08,5.414599e-08,-7.2611925e-08,9.362228e-09,-3.870518e-08,-0.006483163,-0.014180638,-0.012935772,0.001447281,0.0036779994,-0.01634024,-0.037010696,-0.054312848,-0.037147693,-0.007836977,-0.0013429162,-0.014109444,-0.023979943,-0.014531695,-0.0013387637,0.021816742,0.023291977,0.01958825,0.017727526,0.015922578,0.039344877,0.041725967,0.032733582,0.029292967,0.02503002,0.031952735,0.05068429,0.06747611,0.06294068,0.03453945,0.012918894,0.023640752,0.033362992,0.030932112,0.016742898,-0.0023388022,-0.013181675,-0.01426142,-0.014445847,-0.007625828,-0.008026017,-0.009367966,-0.0064307414,-0.009013745,-0.011405317,-0.002930018,0.0011762873,0.006317355,0.0028370896,-0.0018490107},
{0.009127975,0.012897916,0.013638681,0.010504563,0.0047173514,0.006153263,0.011735618,0.015089072,0.013618123,0.007593607,-0.0010324788,-0.00024785005,0.0019050789,0.0030696327,0.0031764498,-0.000588391,-0.0018364138,-0.0017739699,-0.0021412522,-0.002562764,0.0019644008,0.0023662832,0.0022162627,0.0015296042,0.00086997123,1.13384996e-10,4.5581032e-11,3.4288333e-11,3.3764932e-11,7.811381e-11,9.661273e-11,1.4912757e-11,-1.78005e-11,-1.1762105e-11,3.8502587e-11,2.0596899e-10,2.6816596e-10,3.9380926e-10,3.1088e-10,1.393654e-10,7.820097e-11,6.7927e-11,1.7612202e-10,1.7899265e-10,1.9254061e-10,9.93252e-11,4.8724764e-11,3.1387636e-11,4.047764e-11,1.00611755e-10,0.007051892,0.009916533,0.010511511,0.0081127705,0.0036351818,0.0047735698,0.009080889,0.011668848,0.010528696,0.0058170836,-0.00075956114,-0.00018151106,0.001506987,0.0024237426,0.0024850112,-0.00036842583,-0.001345532,-0.00125637,-0.0014941306,-0.0018671624,0.0015300928,0.0018396346,0.0017151986,0.0011656173,0.00070138526,4.8571824e-17,-5.99036e-17,1.6062225e-17,7.2679616e-17,1.0203933e-16,8.062821e-17,-4.089954e-17,3.1192584e-17,1.0497433e-16,1.1508287e-16,1.1321207e-16,2.6968876e-17,7.0323805e-17,9.380121e-17,1.3428601e-16,1.2900796e-16,4.8404763e-17,5.279782e-17,8.764066e-17,1.6722197e-16,1.6799154e-16,1.3642829e-16,1.5385394e-16,1.6524448e-16,1.7444677e-16,-9.037286e-31,-3.2092007e-31,4.4440697e-31,-4.567301e-31,-1.563059e-31,-6.9316965e-31,-6.067462e-31,2.6304545e-31,-1.8743959e-31,-7.9263114e-33,-4.1693496e-31,-1.3275669e-31,2.4583541e-31,2.3045715e-31,7.1806163e-31,-1.1409591e-30,-8.3986645e-31,-3.4062855e-31,-2.6730683e-31,2.9448282e-31,-4.811853e-31,-1.0726939e-30,-6.821625e-31,-7.001388e-31,-9.1147844e-32,-9.825959e-18,-6.563097e-17,-3.7556117e-17,-7.9378885e-17,1.5920196e-16,4.8729938e-18,4.16387e-18,3.80801e-17,-4.5934104e-17,5.445624e-17,2.2117784e-18,8.231873e-18,8.293924e-18,4.3172085e-17,5.911675e-17,-6.1492524e-18,7.22826e-18,1.9646492e-17,4.7051168e-17,2.9378828e-17,-4.3028043e-17,-9.922701e-17,-8.373582e-17,-6.840618e-17,1.2462251e-16,2.3623e-41,-9.251e-42,3.7637e-41,-2.6244e-41,-2.201e-42,-3.8087e-41,-2.176e-42,-1.684e-42,1.1091e-41,-2.4682e-41,-3.8894e-41,-2.7374e-41,1.9257e-41,-2.4572e-41,5.2996e-41,4.1606e-41,-6.0736e-41,5.5583e-41,5.0849e-41,1.3296e-41,-6.117e-42,1.4845e-41,-1.5581e-41,-1.442e-42,3.4384e-41,-2.1403856e-08,2.5983878e-08,-3.0628627e-08,-9.042689e-09,-5.242291e-09,-1.9369805e-08,1.645936e-08,-2.1554214e-08,-1.9514947e-09,-4.4392942e-10,-1.849516e-08,2.033122e-08,-1.6619765e-08,-1.7521093e-09,2.3786206e-09,-1.65268e-08,4.511408e-08,-2.4318533e-08,-1.33177975e-08,1.5230535e-09,1.3629434e-09,5.0062678e-08,-2.5652124e-08,-9.7060635e-09,-7.235773e-10,-0.0009867997,-0.00060705445,0.0034597982,0.0044475985,0.0015317292,-0.0037279364,-0.0067053623,-0.006431474,-0.0032098962,-0.00040531595,-0.0021265976,-0.0068338793,-0.0085326405,-0.0067883832,-0.0033747007,0.0021382014,-0.00068077515,-0.0020105322,-0.002302687,-0.0013675971,0.003435261,0.0036452762,0.0030747773,0.0026986394,0.0009929371,0.006753088,0.009496112,0.010065723,0.0077711907,0.00348246,0.0045730746,0.008701562,0.011175194,0.010080457,0.005561982,-0.00072263996,-0.00017358625,0.0014459422,0.0023262706,0.0023824493,-0.00033460968,-0.0012684026,-0.0011792858,-0.0014078221,-0.001771817,0.0014620823,0.0017631315,0.0016407934,0.001110788,0.0006711729}
};
float conv2_bias[]={
6.377e-42,
1.3897534e-14,
2.0522967e-11,
0.0051194984,
1.3184139e-15,
-0.00070387626,
0.0012011277,
0.003019665,
0.0010054423,
0.0004993534,
0.0022658173,
0.0021176008,
0.0045999116,
-3.734503e-15,
-8.983522e-08,
-1.3159043e-13,
0.00019145466,
0.010206587,
0.0015392941,
0.0007819704
};
float fc_weight[][320]={
{2.0687e-41,-2.1305e-41,-8.855e-42,3.9428e-41,-1.9e-43,2.8128e-41,-2.8113e-41,3.5168e-41,1.9589e-41,6.9139e-41,-1.5344e-41,-7.40155e-40,2.1237e-41,-3.732e-42,2.0309e-41,-6.5194e-41,-7.521967e-16,-4.639518e-16,-5.1603375e-16,-6.190065e-16,-7.2498286e-16,-5.7104314e-16,1.1353653e-16,-3.0481106e-17,-3.9361973e-16,-6.4354546e-16,-7.9999054e-16,-3.8516182e-16,-7.6844687e-16,-6.735732e-16,-5.460135e-16,-9.143561e-16,1.3918152e-11,6.813442e-11,-2.3363374e-11,4.437265e-11,2.3263506e-11,5.5080773e-11,-2.4610545e-11,-5.416654e-12,4.103823e-11,-1.907704e-11,-4.530884e-11,1.4075392e-11,-5.845856e-11,-3.7600305e-11,-8.50921e-11,1.0325334e-11,-0.060020633,-0.10083118,-0.10767613,-0.07016279,-0.030257089,-0.01959001,-0.018241012,-0.0053873677,-0.02256602,-0.026555128,-0.0075105857,0.01566607,0.039700914,0.034411836,0.060630936,0.09501814,-2.1817487e-15,-2.4370533e-15,-2.5021959e-15,-2.5380487e-15,-2.458991e-15,-2.8127419e-15,-2.4470655e-15,-1.7082414e-15,-2.0480041e-15,-2.1996514e-15,-3.240516e-15,-4.443838e-15,-3.0725714e-15,-3.3899097e-15,-3.333386e-15,-3.1426265e-15,0.0003882901,-0.001412866,-0.0014260515,-0.0006700012,-6.2223335e-05,-0.0011594404,-0.0008685934,-0.00082565035,0.00031691312,-9.5256815e-05,0.00012276565,5.7494195e-05,0.00076338527,0.000393202,-5.3635697e-05,0.00016528417,-0.014696507,0.0030064401,0.0009888264,-0.00017119887,0.00064136914,0.012437983,0.01850572,-0.00068851287,-0.0038895505,-0.0005812967,0.0042164978,0.03434368,0.012312334,-0.018199613,-0.01171326,0.002746949,-0.06529105,-0.021680169,0.012035714,0.0040278616,-0.022619605,0.028322991,0.03222482,0.028721953,-0.03247586,-0.0070670135,0.0032395967,0.032898635,0.105880246,0.019050844,-0.05677203,-0.048264854,4.4050994e-05,0.0398525,0.036407836,0.009655118,-0.0032041024,-0.011151209,0.0022717637,0.043015208,0.030158205,-0.023107676,0.0009125501,0.05897724,-0.035204228,-0.07835673,-0.052615892,-0.03470999,-0.008873481,0.005067414,0.0054864995,0.0023336683,0.0038342245,0.007597402,0.0074388464,0.00121116,0.0007482163,-0.0012995483,-0.002336806,0.019204466,0.003468647,-0.023565419,-0.02442264,-0.012494925,-0.0536452,-0.02424222,0.005559894,-0.0029970924,-0.025191197,0.01689374,0.027937869,0.025330188,-0.03169685,-0.0028363264,0.0069395583,0.0284843,0.092453964,0.028454404,-0.035686783,-0.031575378,-0.0426645,0.0031333396,0.021082291,0.017445162,0.0058690417,0.031506006,0.01603128,0.016835723,-0.007329213,-0.0076746917,-0.0043956437,0.044716205,0.05392468,-0.032609485,-0.07842006,-0.059648424,-0.065705806,-0.10497259,-0.104951225,-0.06380692,-0.024675827,-0.020549817,0.00014993479,0.002650802,-0.024079857,-0.035335414,-0.012813225,0.018261747,0.061743997,0.04483264,0.041258555,0.07717937,-2.475927e-16,2.457117e-16,4.8653268e-15,-2.721848e-16,3.863582e-15,7.741086e-16,-8.191558e-15,-3.2847254e-15,-2.4767972e-15,-8.8094145e-15,-3.394083e-15,-5.216956e-16,-5.3953513e-15,-5.0874688e-15,-4.0037994e-15,-6.3976437e-15,-3.7853584e-05,-3.2104774e-06,-3.627572e-09,-0.00011661373,1.6327741e-08,4.1224084e-05,1.02688955e-05,-8.039473e-06,4.201162e-06,-4.2970205e-05,-0.0002899496,0.0027412546,-5.445023e-05,-0.00028489882,-3.26442e-11,-8.112474e-09,1.7870945e-13,6.9441496e-14,3.040594e-13,8.292998e-13,-1.5298256e-12,-2.7995515e-13,6.0216697e-13,6.382265e-13,-2.7484577e-12,-2.6331208e-13,5.753496e-13,-7.978526e-14,-3.9796833e-12,-2.194592e-12,-1.3670906e-12,-3.9584823e-13,-0.0017453121,-0.007911528,-0.0109562045,-0.005990025,-0.0010476046,-0.0037712709,-0.00049695175,0.0016142091,-0.0010438729,-0.0017574035,-0.0025957986,-0.00012938291,0.006048808,0.00792412,0.009633852,0.0093783755,0.057751782,0.10664353,0.06599371,0.02481648,0.034886584,-0.00508689,-0.06614459,-0.05927774,0.07752253,0.008765408,-0.07462967,-0.11360603,-0.06388197,0.009716587,0.09469079,0.051058453,-0.03762597,-0.046404336,-0.04136215,-0.018777693,-0.010324373,0.0033145882,0.0059216623,-0.0010775815,-0.017868865,-0.013369661,0.0031004958,0.024080174,0.028805928,0.009488285,0.02363515,0.058666896,-0.004611614,-0.0053631086,-0.0041887388,-0.0018576127,-0.0016594279,0.00025142633,0.004451888,0.0016620412,-0.0032257068,-0.0023539364,5.7819598e-05,0.007246202,0.0058295843,-0.0018788291,-0.0005006388,0.005792619},
{1.4008989e-18,2.0930899e-21,-6.0128334e-25,7.38421e-15,-1.6818349e-24,5.9697286e-21,3.312607e-11,9.8034005e-11,5.650125e-11,-6.379987e-10,5.8758565e-10,2.7321646e-06,1.9027583e-08,2.9249472e-08,2.8329717e-12,-1.9065248e-17,2.850142e-14,3.6548747e-14,2.4634856e-14,1.4214682e-14,9.901038e-15,1.23825875e-14,8.803835e-15,5.801315e-15,9.5673845e-15,8.429262e-15,9.490245e-15,9.109301e-15,7.166364e-14,1.0200537e-13,4.8802943e-15,5.627138e-15,5.9205425e-11,9.568141e-11,1.06851666e-10,7.4376415e-11,2.7503474e-10,2.353872e-10,2.1190863e-10,4.269747e-11,-3.817085e-11,8.613558e-12,1.5631507e-11,-4.404417e-12,1.5442267e-10,1.1812022e-10,1.1748415e-10,1.5438369e-10,-0.026976483,0.00044786328,-0.008168241,-0.045677662,0.03924048,0.061221574,0.035393264,-0.01876687,-0.053915337,-0.023515994,-0.058322188,-0.08020052,0.07621191,-0.0023622587,-0.07284274,0.05743137,3.2411042e-15,2.979464e-15,3.015261e-15,3.765613e-15,3.4220137e-15,3.4700371e-15,3.8302457e-15,5.6070066e-15,5.4223543e-15,4.6806117e-15,8.810962e-15,1.7390491e-14,6.3893398e-15,1.1401389e-14,5.819051e-15,3.8710625e-15,-0.0010778484,-0.0008401855,0.0027704984,0.00045274233,0.002630539,0.0025646538,0.0021086293,0.001359642,0.00033513113,0.0026920533,0.00029086514,-0.0010845885,-0.001142366,-0.000189396,-0.00026744284,-0.00063040835,-0.0014169221,-0.003562329,-0.031175034,-0.009629093,-0.030098509,-0.02108268,-0.030848758,-0.03285102,-0.014050927,-0.011987411,0.018289648,0.07130493,-0.011474165,-0.008181972,-0.024259435,0.008430915,-0.036712877,0.004964952,-0.038508713,-0.09252653,-0.12636288,-0.102662995,-0.084749065,-0.104894504,0.06708815,0.008590538,0.001196401,0.10592232,-0.051875375,-0.031765062,-0.06377331,-0.029420799,-0.008870213,-0.014504058,-0.04563398,-0.012906558,-0.035656642,-0.017489156,-0.00078961684,0.009310272,-0.012263305,-0.06527443,-0.020249689,0.093223214,0.06069573,0.060380094,-0.028721543,-0.032293618,0.006526058,0.0058269305,-0.014821459,-0.006168522,-0.021479143,-0.011658536,-0.0157147,-0.0221987,-0.009758356,-0.0064471527,0.01283203,0.041905113,-0.001603042,0.006092489,-0.012431681,-0.0091192005,-0.035301432,-0.005710958,-0.03417799,-0.07889581,-0.10244054,-0.081353344,-0.07058238,-0.087049715,0.07698685,0.0065860087,-0.012051718,0.08857538,-0.05310426,-0.042221304,-0.067395866,-0.026334802,0.0024512957,0.022020368,-0.0363948,-0.05175389,-0.0986643,-0.06409544,-0.047291256,-0.06727138,0.012860612,0.004406926,0.020919276,0.10969323,-0.020333918,0.014124938,-0.02256565,-0.04928576,-0.044481393,0.0010230602,-0.013482362,-0.06677486,0.017634438,0.036102273,0.02026159,-0.03704078,-0.03420555,-0.027483176,-0.07032617,-0.08275938,0.08054704,-0.000743776,-0.107839376,0.034500528,9.5492944e-15,1.0328122e-14,2.4447643e-14,8.9923466e-15,7.973256e-15,2.0571364e-14,3.3703346e-16,2.0102167e-16,2.5329364e-15,4.951054e-15,4.6489456e-17,4.702603e-16,-2.40044e-15,-3.5291327e-15,-6.4500305e-15,-6.660985e-15,-0.0002039642,-0.00070765737,-0.00074050546,-0.0010538623,-0.0035080635,-0.0012349257,-0.0009071614,-0.0064298753,-0.004107147,-0.002031927,0.0033269427,0.016722575,-0.0017571368,-0.0017054178,-0.0057477844,0.000102785976,-1.979166e-12,-2.3731776e-12,-4.279068e-12,-4.108425e-12,-1.3941832e-12,-4.9287558e-12,-5.0424643e-12,-3.436766e-12,-1.3807572e-12,-4.1459297e-12,-4.2916495e-12,-2.7544952e-12,5.59182e-12,-7.957811e-13,-1.2052196e-12,2.623533e-13,-0.008086035,-0.002679508,-0.0015418077,-0.0083032,0.0015625341,0.0064258506,0.0077998084,-0.003805275,-0.009798035,-0.0026387656,-0.0016223004,-0.007689708,0.018058578,0.0010315119,-0.011589857,0.0034932334,0.021382455,-0.06380068,0.007518303,0.0554822,0.099013165,0.0627694,0.04555904,0.07092966,0.045461334,0.07447327,0.0578741,0.05192948,0.028412415,0.026561717,-0.027218288,-0.039936244,-0.01722998,-0.0020801085,-0.01910682,-0.031367924,0.00068369205,0.014806075,-0.0057046167,-0.020884143,-0.022229454,-0.01852823,-0.040088855,-0.032793455,0.02374436,-0.01952742,-0.043365072,0.045858573,-0.008964046,-0.0067750993,-0.009629156,-0.009300533,-0.004304012,-0.004388459,-0.0062132655,-0.0054406524,0.0015932583,-0.004424906,-0.0014288523,0.006816594,0.0173761,0.0030235727,-0.0122970175,0.008351787},
{-6.1581e-41,-2.2798e-41,-4.2407e-41,-5.5172e-41,-2.83986e-40,6.6361e-41,2.6486e-41,1.08e-42,9.334e-42,-2.7694e-41,2.973682e-32,9.464847e-19,9.384245e-31,-1.2396e-41,1.4566e-41,7.053e-42,-3.176581e-15,-1.9047437e-15,-5.8639185e-15,-9.652233e-15,-2.2262552e-15,-1.6157347e-15,-2.2138714e-15,-2.5823777e-15,-1.119374e-14,-5.755672e-15,-2.0856346e-15,-1.7219604e-15,-9.685407e-16,-6.366915e-16,-9.447552e-16,-1.0564231e-15,-3.0893343e-11,2.8806742e-11,3.7748187e-11,-5.7199342e-11,-6.945295e-11,-2.877442e-11,-3.1521067e-11,-1.5403458e-10,-5.906755e-11,-4.3721197e-11,-4.757775e-11,-3.8402614e-11,-5.147232e-10,-3.9139492e-10,-3.0378564e-10,-2.6951766e-10,-0.021461738,0.0037357039,0.06088623,0.09406586,-0.063025974,-0.034581907,-0.0339379,-0.028711416,0.08945096,0.042416282,0.00088011473,-0.024183096,0.0405474,0.013510277,0.03519062,0.013703321,-5.2788343e-15,-6.2603273e-15,-5.449931e-15,-5.8825303e-15,-9.063053e-15,-7.852018e-15,-5.9180722e-15,-6.90062e-15,-8.8210596e-15,-8.926667e-15,-8.692252e-15,-1.2213796e-14,-5.480932e-15,-7.0972272e-15,-1.1982514e-14,-1.7567795e-14,0.00066276774,0.0027206077,0.0025325634,0.00266143,-2.6374095e-05,0.0027180612,0.0030513692,0.0015984236,-0.0006889221,0.0007199858,0.0024518147,0.0014888173,-0.0010875097,-0.00022190198,-0.0007219001,-0.0006677782,-0.0049436362,-0.0034930594,0.003496463,0.007956016,0.005762559,0.0016775245,-0.0055118664,-0.0038856529,0.008588109,0.0051758424,-0.00014228083,-0.015371246,-0.017241646,-0.0032938074,0.014862051,0.037649296,-0.039985895,-0.032764312,-0.017313987,-0.0026989027,0.052629005,0.018306158,0.0026762572,-0.023230921,0.039152537,0.003380237,0.0064016823,-0.0337661,-0.071008064,-0.050587174,0.0074111237,0.07944132,-0.0095249675,-0.015305057,-0.017740177,-0.011753334,0.025590627,-0.0052571064,-0.022213599,-0.03256413,-0.03812458,0.009415111,0.043903653,0.04663843,-0.012356108,-0.029509732,-0.0013053473,0.022073649,-0.004469531,-0.0073605217,-0.009607933,-0.0046317754,0.009749685,0.0031781632,-0.003703632,-0.0033164667,0.004611088,0.00371616,0.0029373858,0.0020500964,-0.010598076,-0.0045730392,0.010670755,0.031852584,-0.035191823,-0.018557975,-0.005108899,0.008618148,0.03818071,0.019881546,0.004345422,-0.018656597,0.035136998,0.008272454,0.0051126755,-0.034817215,-0.05295201,-0.040090345,0.008840072,0.06361475,-0.02293865,-0.027515233,-0.03105056,-0.02407701,0.04779505,0.010639222,-0.0029630654,-0.017109659,0.02045136,0.0040708357,0.014700109,0.0032070193,-0.04301957,-0.031397656,0.01680218,0.07902206,-0.022411462,-0.00090514775,0.05992608,0.10178732,-0.06897272,-0.03445984,-0.0363131,-0.03212211,0.09204623,0.04015371,0.0027565986,-0.026003098,0.029947583,-0.0030569748,0.04436656,0.03183791,-1.773387e-14,-2.22639e-14,-3.399284e-14,-1.4688346e-14,-3.9046262e-15,-1.041885e-14,-1.621666e-14,-6.5945106e-15,-8.446566e-15,-8.505129e-15,-2.0504565e-15,-1.05871283e-16,5.7628327e-15,4.2596173e-15,1.0875054e-15,-7.090687e-16,-5.3964e-41,-1.2701e-41,2.5012e-41,-8.097e-42,0.00087260106,1.9207071e-05,-3.0736e-41,-2.6861e-41,1.883344e-05,3.0605443e-05,3.4022885e-11,-0.0005238128,-2.3986e-41,-1.7975796e-17,1.5226546e-07,0.0041123093,2.8157463e-12,1.439581e-12,1.2546478e-12,-1.3239533e-12,4.294582e-12,3.641159e-12,-2.7028862e-13,-1.2486913e-12,3.4122028e-12,5.975343e-13,-5.1817773e-13,-1.1375874e-12,-2.6106435e-12,-2.8242617e-12,-2.5338204e-12,-3.3035848e-12,-0.0024871277,-0.00037548228,0.0067390925,0.016144387,-0.008952001,-0.003802572,-0.004686951,-0.0044766697,0.011819511,0.009243446,0.0011582309,-0.0019368597,0.0126067465,0.007203463,0.005782809,0.002232309,-0.0027942928,0.004494957,-0.016678207,-0.07368774,-0.015977416,-0.007997684,0.017174672,0.0066144713,-0.07848219,-0.014938755,0.009369079,0.05355744,0.040362544,0.05758316,0.011733248,-0.082303636,-0.010811011,0.0045113103,0.04136292,0.05567588,-0.021310747,-0.016736507,-0.018121924,-0.010824659,0.043522254,0.012723306,-0.00030736683,-0.018293139,0.0038077591,-0.0024907219,0.021781208,0.01633513,-0.00088232657,-0.0002706612,0.0051302672,0.010037857,-0.002088071,-0.00056272256,-0.0019644804,-0.0014248095,0.008441481,0.001796637,-0.0010013261,-0.008226727,-0.015729204,-0.009105296,0.005448282,0.00952613},
{-5.4017e-41,-1.9554e-41,1.598e-41,-2.899e-41,7.779e-42,3.074e-42,3.5832975e-23,3.3399644e-20,-3.448e-41,-9.60311e-40,1.55594e-22,2.386959e-20,-6.3355225e-26,-2.0300881e-19,1.7643884e-21,2.4730184e-31,-1.4596646e-14,-1.3538427e-14,-3.4411791e-15,-1.8347204e-15,-2.0593865e-15,-2.280379e-15,-1.3579552e-15,-8.0752267e-16,-1.1845392e-15,-1.058654e-15,-2.3212963e-15,-2.5177144e-15,-1.5596456e-15,-1.0170882e-15,-1.0284715e-15,-1.118366e-15,-6.003752e-12,6.2693514e-13,1.5868197e-12,5.689739e-12,1.63143e-11,-9.018128e-12,-1.0422447e-11,-4.00662e-12,-2.0717143e-11,-7.9103555e-12,-8.7284156e-12,-1.246239e-12,-5.1118353e-11,-4.5286448e-11,-6.3002485e-11,-4.21939e-11,0.11138786,0.055630844,0.024484413,0.046077736,-0.012820249,-0.02366301,-0.015862714,0.008579202,-0.01514945,-0.024159148,0.016649444,0.045029547,-0.06465692,-0.017258827,0.042736355,0.0675893,-2.2991121e-18,5.3085307e-16,2.8677436e-16,-1.2532019e-16,1.8204321e-16,4.793026e-16,-7.496239e-17,-1.6237808e-15,-9.110786e-16,-1.7707912e-17,-2.4325173e-15,-6.530058e-15,-3.5395885e-15,-2.9220951e-15,-7.91233e-16,-2.559128e-16,-0.0003060079,-0.00021754547,1.5185235e-05,4.6421024e-05,0.00048247355,0.00035990527,0.00036722596,0.00023095352,0.00046889862,0.00034389566,-8.677591e-05,-0.00033810997,-0.0002024594,-0.00012306064,-8.005887e-05,-0.0003845557,-0.00092522736,-0.0028712607,0.0050216927,0.0043197875,-0.00741821,-0.0055823075,0.0009162629,-0.0029302577,-0.0019392777,0.0086988425,0.020715332,0.017284114,0.002314744,-0.0033321066,0.0038125077,0.005499179,0.017854232,-0.005062106,-0.0036938363,0.03348461,-0.040243953,-0.03436974,-0.010823039,0.0075377044,-0.060979076,-0.008769524,0.03421033,0.06802626,0.052916385,0.011557044,0.00719659,0.0057589067,-0.027068509,-0.016121494,-0.00150054,-0.014188077,-0.010937612,0.014136193,0.05550885,0.04533545,-0.012960661,0.018073712,0.02519803,0.016222654,0.007502948,-0.015337893,0.0051663956,0.006365958,-0.010313486,-0.004939175,0.0041876403,0.0023881358,-0.006529049,0.00016649603,0.009366279,0.0055481982,-0.0017842052,0.0042888224,0.011377809,0.009002875,0.002858888,-0.00791526,-0.00444194,-0.0040363166,0.028719632,0.0020579658,-0.003299133,0.026028212,-0.033485882,-0.03244072,-0.015451099,-0.001909948,-0.05598175,-0.00892878,0.03041393,0.05799876,0.04419128,0.016066268,0.014484159,0.010308311,-0.030383337,-0.020954268,0.0049132663,0.02131179,-0.02941321,-0.007903139,0.022792485,0.02801011,-0.024836669,0.0012775427,0.029553387,0.037669696,0.03689605,-0.011912288,-0.020106787,-0.016181527,0.13103999,0.058256567,0.023945786,0.04885916,-0.018160358,-0.029082565,-0.019805523,0.007170871,-0.029411325,-0.025866235,0.024913186,0.063715085,-0.0725162,-0.025468333,0.039977103,0.0687856,-3.470942e-16,6.3291567e-16,3.9606938e-16,5.862452e-16,2.6220176e-15,-4.350994e-15,5.4833276e-16,2.338795e-15,3.430672e-15,1.1267738e-15,5.264849e-16,6.146508e-16,9.708811e-16,2.3845583e-15,3.1108877e-15,3.0096182e-15,-1.1410571e-16,-4.2406423e-14,2.5600033e-15,5.9831046e-14,-5.909e-41,2.2641385e-24,3.1003108e-10,6.286343e-09,4.445605e-18,5.1509044e-11,3.4607106e-05,6.395921e-05,1.6451581e-07,1.957822e-08,-2.5619535e-14,-2.4100277e-12,2.5347554e-13,2.9775355e-13,-1.120764e-13,-2.3986946e-13,5.405687e-13,-1.9750659e-13,-2.9042445e-13,-3.0082238e-13,3.1004046e-13,-5.058572e-14,-2.696101e-13,-6.941271e-14,-5.941913e-13,-2.4649743e-14,-3.7934577e-14,2.9465232e-13,0.019536287,0.009971313,0.0031335058,0.0049419487,0.0007881214,-0.003249925,-0.0023738567,0.0012998484,-0.0018356789,-0.0024810235,0.00028579123,0.0050647464,-0.009187315,-0.001000115,0.0043411576,0.008651425,-0.108715326,-0.01500921,-0.048686374,-0.072277024,0.0021321825,0.021553209,0.0021101013,-0.012891684,0.051041517,0.032664303,-0.022644695,-0.09685092,-0.013558344,0.009092378,-0.004250425,-0.052595276,0.05262748,0.019779574,0.012995808,0.022846399,-0.015989307,-0.016569002,-0.0073635234,-0.0006095159,-0.01204192,-0.0032818925,0.025439493,0.035570066,-0.01820628,0.0013201348,0.024902757,0.035481557,0.010157157,0.0039794235,0.002255873,0.0040009213,-0.0027260743,-0.0012635473,-0.0005799586,-0.0005281491,-0.0019586245,0.0016136693,0.0061991164,0.009416564,-0.0034466533,-0.00148464,0.0037071044,0.00688056},
{-1.2144e-41,2.657e-41,4.8885403e-28,3.8229e-41,2.1677e-41,-2.4755e-41,1.2288e-41,5.3175e-41,-1.0793e-41,-3.1847e-41,-5.6069e-41,1.85476e-28,2.9464e-41,-4.8684e-41,-2.5341e-41,1.7009e-41,-3.215312e-15,-2.0484209e-15,-1.860441e-15,-2.0496937e-15,-1.5835582e-15,-1.9189718e-15,-2.6471438e-15,-2.945324e-15,-2.6816119e-15,-3.7126716e-15,-5.010381e-15,-2.905182e-15,-2.650964e-15,-2.2110436e-15,-2.0516868e-15,-1.93545e-15,2.4585537e-11,2.1011066e-11,2.8070282e-11,1.548252e-11,-5.770392e-12,2.305004e-11,1.9092384e-11,2.7851879e-11,4.336822e-12,-5.1287763e-12,-9.333015e-12,1.2817662e-11,-4.5647635e-11,6.3614986e-12,6.675953e-12,4.1148435e-11,0.052552197,0.030788597,-0.016676206,-0.031660195,-0.0019042386,0.0101054935,0.04045985,0.056309294,0.0080393385,0.006213703,0.01233459,0.010820651,0.045632515,0.029392261,0.0017728385,-0.0058604483,1.6312835e-16,-2.7763882e-16,-4.264787e-16,-4.981851e-16,-6.420204e-16,-8.4638666e-16,-2.0149582e-16,-2.7776698e-16,-1.3035549e-15,-1.2066863e-16,-1.4127541e-16,-5.534274e-16,-1.8809207e-16,-1.4910819e-16,-1.374748e-16,-8.743029e-17,-4.403807e-05,1.26822615e-05,0.00022958941,-0.0005665178,4.0670955e-05,-1.01865035e-05,-4.2425785e-05,-3.673807e-05,-3.3988035e-05,-2.8072127e-05,-3.028207e-05,-1.2589336e-05,-2.4556366e-05,9.844791e-06,3.7607944e-05,3.5697063e-05,0.015498758,0.009602593,0.0022487422,-0.0004189553,-0.004322901,0.008763079,0.017093485,0.008446222,0.00959301,0.00061114033,-0.010714047,-0.007182213,-0.001965515,-0.0018747088,-0.0026220458,0.0048267534,0.040968254,0.048002113,0.023785511,0.009181415,-0.011871239,0.004106576,0.055179503,0.052378174,0.03538511,0.01513161,-0.023946485,-0.045137234,-0.009800925,-0.010233632,-0.0065322686,0.0053545763,-0.004788982,0.018337911,0.03666466,0.026543388,0.019147227,-0.004855339,-0.012290213,-0.013428321,0.00787226,-0.004948362,-0.010106478,0.008265895,-0.013056691,-0.018227855,-0.012331957,-0.008018688,0.005654001,0.005730049,0.004652696,0.0029788518,-0.0012013646,0.0032006574,0.008981767,0.004056378,0.0063293064,-0.0021271869,-0.006800527,-0.0016696728,-0.0041342424,-0.0023147424,-0.0021124117,0.0017243177,0.03386313,0.040740263,0.018737564,0.00487719,-0.011207895,0.0010095286,0.044876974,0.045694984,0.029094262,0.015476525,-0.015749129,-0.038222697,-0.0056084637,-0.0066920114,-0.004735585,0.004007643,0.024260988,0.028792944,0.021769218,0.015509491,-0.0019988685,0.008043085,0.036378182,0.02721119,0.02980863,0.002486693,-0.024712509,-0.019515902,-0.0175841,-0.010645768,-0.006369038,0.003972657,0.057980333,0.04307023,-0.008245733,-0.031786002,-0.0005344993,0.01263023,0.0462545,0.065435216,0.01310683,0.013090095,0.008128956,0.008865495,0.044189926,0.0305536,0.0016956856,-0.0065019606,6.3989236e-16,-3.0741274e-16,-5.035885e-16,-5.595611e-16,-4.4189262e-16,-9.058814e-16,-7.2096247e-16,3.633949e-16,-5.989652e-16,5.0482375e-16,-4.3565986e-16,-7.5233975e-16,5.0000317e-15,7.0551635e-16,-4.833876e-16,-9.18305e-16,6.692738e-05,1.118568e-05,1.2592635e-07,1.5755679e-10,2.0663386e-10,4.587711e-06,7.717857e-05,1.3534521e-05,1.0951209e-05,-1.1686231e-08,-2.2413232e-07,-6.052557e-08,-1.18773915e-08,1.8218818e-10,4.344731e-09,1.4966054e-07,-1.7236291e-13,-4.3717823e-13,-8.194849e-13,-1.596038e-13,-4.4816966e-13,-1.4977836e-13,-1.7143413e-13,1.7724181e-13,-1.7037329e-13,-2.7110071e-13,-2.5602152e-13,-1.8262591e-13,-1.3701331e-13,-2.920897e-13,-6.06874e-13,-3.6427675e-13,0.0056562847,0.005059544,-0.0015771864,-0.0043758475,-0.00064768555,0.00023127343,0.0036598446,0.0065870304,0.00025969764,-7.274876e-05,0.0012536868,0.0022108657,0.0063117896,0.005119715,0.00062641717,-0.0018161043,-0.080192514,-0.039743602,0.029635979,0.044091776,-0.02133398,-0.04677977,-0.07090328,-0.06709885,-0.058132283,-0.04734918,-0.011638653,0.012419265,-0.008960339,-0.006092769,0.009544116,0.009264626,0.032127295,0.018321024,-0.007610943,-0.012038668,-0.0004720337,0.011288015,0.027447462,0.02940872,0.011026808,0.002984662,0.0029445372,0.00015499028,0.022133458,0.010429597,-0.0037868116,-0.00019663566,0.006691699,0.0052228714,0.0007821608,-0.0018877685,0.00012244484,0.0034461909,0.006995599,0.006463516,0.0038121508,0.0019461267,-0.0018723583,-0.0027186624,0.0028322577,0.0014313459,-0.00049439777,0.00013353876},
